<?xml version="1.0"?>
<opencv_storage>
<opencv_ml_svm>
  <format>3</format>
  <svmType>C_SVC</svmType>
  <kernel>
    <type>INTER</type>
    <gamma>1.</gamma></kernel>
  <C>1.</C>
  <term_criteria><iterations>100</iterations></term_criteria>
  <var_count>1800</var_count>
  <class_count>10</class_count>
  <class_labels type_id="opencv-matrix">
    <rows>10</rows>
    <cols>1</cols>
    <dt>i</dt>
    <data>
      0 1 2 3 4 5 6 7 8 9</data></class_labels>
  <sv_total>277</sv_total>
  <support_vectors>
    <_>
      1. 0. 0. 2. 0. 2. 0. 2. 0. 0. 0. 0. 1. 1. 0. 0. 0. 0. 1. 0. 0. 1.
      0. 1. 0. 0. 0. 0. 0. 0. 0. 0. 0. 0. 3. 0. 0. 0. 3. 0. 1. 0. 2. 0.
      0. 0. 1. 2. 0. 0. 0. 0. 3. 0. 0. 0. 0. 0. 0. 0. 0. 2. 0. 2. 0. 0.
      5. 0. 0. 255. 252. 254. 253. 255. 43. 0. 0. 1. 1. 0. 1. 0. 1. 2.
      0. 0. 0. 0. 0. 0. 0. 0. 0. 0. 1. 2. 100. 176. 255. 252. 255. 255.
      253. 254. 252. 231. 105. 18. 1. 0. 1. 3. 0. 0. 0. 0. 0. 0. 0. 0.
      0. 0. 1. 0. 2. 167. 255. 255. 255. 255. 254. 254. 255. 255. 255.
      254. 252. 213. 0. 5. 0. 0. 3. 0. 0. 0. 0. 0. 0. 0. 0. 3. 0. 10.
      153. 254. 255. 254. 254. 255. 255. 254. 255. 254. 254. 255. 255.
      255. 223. 23. 3. 1. 0. 0. 0. 0. 0. 0. 0. 0. 0. 0. 1. 170. 254.
      255. 255. 252. 252. 255. 254. 252. 254. 255. 253. 255. 254. 255.
      252. 205. 25. 2. 0. 0. 0. 0. 0. 0. 0. 0. 1. 1. 0. 255. 255. 255.
      252. 255. 255. 252. 255. 255. 255. 253. 255. 252. 255. 253. 255.
      255. 255. 0. 0. 1. 0. 0. 0. 0. 0. 0. 0. 0. 212. 253. 255. 255.
      255. 254. 255. 254. 255. 253. 255. 253. 255. 253. 255. 255. 255.
      253. 254. 212. 3. 0. 0. 1. 0. 2. 1. 0. 0. 1. 211. 255. 255. 255.
      254. 255. 255. 255. 254. 255. 252. 255. 255. 254. 255. 254. 252.
      255. 255. 245. 100. 0. 0. 0. 3. 0. 0. 4. 2. 126. 255. 252. 255.
      254. 254. 255. 252. 244. 105. 0. 0. 0. 170. 254. 252. 255. 255.
      255. 255. 252. 255. 42. 0. 0. 0. 0. 0. 0. 0. 127. 250. 255. 255.
      255. 255. 253. 255. 88. 0. 0. 0. 0. 1. 103. 181. 253. 254. 255.
      253. 255. 253. 41. 1. 6. 0. 0. 1. 0. 44. 253. 255. 255. 251. 254.
      255. 255. 43. 1. 0. 0. 2. 0. 0. 0. 0. 215. 255. 255. 255. 255.
      254. 255. 0. 0. 0. 1. 0. 2. 43. 255. 254. 255. 255. 255. 237. 76.
      0. 0. 0. 5. 0. 0. 0. 3. 3. 128. 254. 252. 255. 254. 254. 255. 0.
      2. 0. 0. 3. 0. 38. 255. 255. 254. 254. 253. 213. 0. 0. 4. 0. 0. 3.
      0. 1. 0. 0. 1. 255. 255. 255. 255. 254. 253. 170. 0. 0. 2. 0. 4.
      45. 253. 255. 255. 253. 255. 209. 2. 1. 0. 1. 0. 0. 1. 0. 2. 1. 0.
      42. 254. 255. 254. 255. 255. 213. 1. 1. 0. 2. 0. 42. 255. 255.
      255. 255. 255. 211. 0. 0. 0. 0. 0. 0. 0. 0. 0. 0. 0. 42. 255. 255.
      255. 255. 255. 214. 0. 1. 0. 0. 0. 42. 255. 255. 255. 255. 255.
      211. 0. 0. 0. 0. 0. 0. 0. 0. 0. 0. 0. 42. 255. 255. 255. 255. 255.
      214. 0. 1. 0. 0. 0. 42. 255. 255. 255. 255. 255. 211. 0. 0. 0. 0.
      0. 0. 0. 0. 0. 0. 0. 42. 255. 255. 255. 255. 255. 211. 2. 0. 1. 0.
      3. 42. 255. 255. 255. 255. 255. 211. 0. 0. 0. 0. 0. 0. 0. 0. 0. 0.
      0. 42. 255. 255. 255. 255. 255. 214. 0. 0. 0. 0. 0. 42. 255. 255.
      255. 255. 255. 211. 0. 0. 0. 0. 0. 0. 0. 0. 0. 0. 0. 42. 255. 255.
      255. 255. 255. 210. 1. 0. 0. 0. 3. 42. 255. 255. 255. 255. 255.
      211. 0. 0. 0. 0. 0. 0. 0. 0. 0. 0. 0. 42. 255. 255. 255. 255. 255.
      214. 0. 0. 1. 4. 0. 42. 255. 255. 255. 255. 255. 211. 0. 0. 0. 0.
      0. 0. 0. 0. 0. 0. 0. 42. 255. 255. 255. 255. 255. 254. 129. 0. 0.
      0. 1. 42. 255. 255. 255. 255. 255. 211. 0. 0. 0. 0. 0. 0. 0. 0. 0.
      0. 0. 42. 255. 255. 255. 255. 255. 255. 128. 0. 1. 2. 0. 43. 254.
      254. 255. 255. 255. 210. 1. 0. 0. 0. 0. 0. 0. 0. 0. 0. 0. 9. 153.
      255. 254. 254. 255. 255. 127. 0. 0. 0. 0. 41. 255. 255. 253. 255.
      255. 209. 0. 0. 0. 0. 0. 0. 0. 0. 0. 2. 0. 0. 132. 253. 255. 255.
      255. 255. 127. 0. 0. 0. 0. 41. 255. 253. 253. 252. 255. 215. 2. 0.
      0. 0. 0. 0. 0. 0. 0. 0. 1. 0. 123. 255. 255. 255. 255. 255. 127.
      0. 0. 0. 0. 44. 255. 255. 255. 254. 254. 255. 125. 0. 0. 0. 0. 0.
      0. 0. 0. 0. 2. 4. 126. 255. 254. 255. 255. 255. 127. 0. 0. 0. 0.
      23. 205. 253. 255. 253. 255. 255. 129. 0. 0. 0. 0. 0. 0. 0. 0. 1.
      0. 0. 126. 255. 254. 255. 255. 255. 127. 0. 0. 0. 0. 0. 131. 250.
      255. 255. 255. 255. 126. 0. 0. 0. 0. 0. 0. 0. 0. 2. 0. 0. 129.
      254. 255. 255. 255. 255. 127. 0. 0. 0. 0. 0. 128. 255. 251. 254.
      255. 255. 128. 0. 0. 0. 0. 0. 0. 0. 0. 0. 0. 1. 130. 255. 254.
      255. 255. 255. 127. 0. 0. 0. 0. 0. 127. 253. 255. 255. 253. 255.
      127. 0. 0. 0. 0. 0. 0. 0. 0. 0. 1. 0. 124. 255. 254. 255. 255.
      255. 127. 0. 0. 0. 0. 0. 129. 253. 255. 255. 252. 255. 129. 0. 0.
      0. 2. 0. 0. 1. 0. 0. 0. 2. 128. 255. 255. 255. 255. 255. 127. 0.
      1. 0. 0. 1. 128. 255. 255. 253. 255. 255. 124. 0. 2. 0. 0. 0. 1.
      4. 0. 1. 1. 0. 125. 253. 255. 252. 255. 252. 255. 43. 0. 1. 0. 0.
      130. 251. 255. 254. 251. 253. 129. 0. 3. 0. 0. 0. 0. 0. 0. 0. 0.
      1. 129. 255. 254. 255. 250. 255. 253. 42. 2. 0. 0. 0. 125. 255.
      255. 255. 255. 255. 126. 0. 0. 0. 1. 3. 0. 0. 1. 2. 1. 0. 131.
      252. 253. 254. 255. 255. 255. 45. 0. 3. 0. 1. 126. 255. 252. 254.
      254. 250. 129. 2. 0. 0. 0. 1. 1. 0. 1. 0. 2. 1. 125. 255. 255.
      252. 255. 254. 254. 40. 3. 0. 0. 0. 128. 253. 255. 255. 255. 255.
      127. 0. 0. 2. 0. 0. 0. 0. 0. 0. 0. 0. 128. 254. 251. 255. 253.
      255. 255. 44. 0. 0. 4. 2. 128. 252. 255. 250. 255. 255. 127. 4. 0.
      1. 2. 0. 0. 2. 1. 0. 0. 0. 125. 255. 255. 255. 255. 255. 252. 44.
      1. 2. 0. 0. 126. 255. 255. 254. 255. 255. 229. 32. 4. 0. 1. 0. 0.
      0. 0. 1. 0. 0. 27. 219. 254. 255. 253. 254. 255. 43. 0. 0. 1. 0.
      129. 252. 255. 255. 255. 254. 254. 41. 1. 1. 0. 0. 1. 0. 1. 0. 0.
      0. 0. 213. 255. 255. 255. 255. 254. 44. 0. 1. 1. 0. 129. 254. 255.
      252. 254. 255. 254. 44. 0. 0. 0. 0. 0. 1. 2. 0. 0. 0. 0. 213. 255.
      255. 255. 253. 255. 43. 0. 0. 0. 1. 0. 213. 254. 255. 255. 250.
      255. 39. 2. 2. 0. 0. 6. 0. 0. 0. 0. 0. 0. 213. 255. 255. 255. 255.
      252. 41. 0. 5. 1. 0. 1. 214. 255. 255. 255. 253. 255. 41. 4. 0. 3.
      0. 0. 1. 0. 0. 0. 0. 0. 213. 255. 255. 255. 255. 255. 41. 0. 0. 0.
      2. 1. 210. 252. 252. 255. 255. 254. 42. 2. 0. 0. 2. 0. 0. 1. 0. 0.
      0. 0. 213. 255. 255. 255. 252. 255. 40. 4. 1. 0. 0. 0. 214. 255.
      255. 253. 255. 255. 41. 0. 0. 0. 0. 3. 1. 0. 0. 0. 0. 0. 213. 255.
      255. 255. 255. 255. 44. 0. 1. 0. 1. 1. 210. 255. 251. 255. 254.
      254. 41. 2. 1. 0. 2. 0. 0. 0. 0. 0. 0. 0. 213. 255. 255. 255. 255.
      254. 42. 2. 0. 2. 0. 0. 214. 255. 255. 254. 255. 255. 255. 0. 0.
      2. 0. 0. 3. 0. 0. 0. 0. 0. 213. 255. 255. 255. 255. 253. 255. 0.
      0. 0. 2. 1. 210. 255. 255. 251. 255. 255. 255. 0. 0. 0. 3. 0. 0.
      0. 0. 0. 0. 1. 212. 255. 255. 255. 254. 255. 254. 0. 2. 0. 0. 0.
      47. 254. 254. 255. 255. 253. 254. 1. 0. 3. 0. 0. 2. 1. 0. 3. 1. 0.
      214. 253. 255. 253. 255. 255. 255. 1. 0. 0. 1. 3. 0. 255. 255.
      252. 254. 255. 255. 41. 1. 0. 0. 1. 0. 0. 0. 1. 0. 28. 219. 255.
      255. 255. 255. 255. 40. 0. 1. 0. 0. 1. 1. 253. 255. 254. 255. 255.
      253. 215. 0. 0. 2. 0. 0. 1. 2. 0. 4. 126. 255. 255. 255. 255. 254.
      255. 41. 1. 2. 0. 3. 0. 0. 255. 254. 255. 255. 254. 255. 252. 131.
      0. 0. 0. 0. 1. 0. 0. 39. 255. 255. 253. 254. 254. 255. 254. 43. 1.
      0. 2. 0. 2. 1. 21. 203. 255. 253. 255. 254. 253. 255. 125. 85. 3.
      1. 0. 53. 105. 253. 252. 255. 255. 254. 255. 254. 202. 26. 0. 6.
      1. 1. 1. 2. 0. 129. 255. 255. 253. 255. 255. 255. 255. 248. 200.
      207. 205. 227. 254. 255. 255. 252. 255. 255. 252. 253. 131. 0. 2.
      0. 1. 1. 0. 0. 1. 0. 214. 253. 255. 253. 255. 255. 254. 254. 255.
      251. 255. 255. 253. 253. 255. 255. 252. 255. 254. 249. 97. 2. 2.
      0. 0. 0. 0. 3. 0. 0. 212. 255. 254. 255. 254. 255. 255. 252. 253.
      255. 254. 254. 255. 253. 255. 252. 255. 254. 255. 212. 0. 0. 3. 0.
      1. 1. 1. 0. 0. 1. 1. 251. 255. 255. 255. 254. 255. 255. 255. 255.
      255. 252. 255. 255. 252. 255. 255. 255. 254. 214. 1. 1. 0. 2. 2.
      0. 0. 0. 0. 4. 0. 28. 203. 249. 255. 255. 255. 255. 254. 253. 254.
      255. 255. 251. 255. 253. 252. 255. 170. 0. 0. 0. 4. 0. 0. 2. 0. 3.
      0. 0. 1. 3. 24. 227. 253. 255. 253. 254. 255. 255. 255. 254. 254.
      255. 252. 255. 255. 148. 11. 0. 0. 0. 1. 0. 3.</_>
    <_>
      1. 0. 1. 0. 0. 0. 1. 0. 20. 21. 19. 255. 255. 254. 253. 255. 253.
      255. 71. 22. 21. 20. 0. 0. 3. 0. 0. 1. 0. 0. 0. 0. 0. 0. 3. 0. 0.
      47. 255. 255. 255. 253. 254. 255. 255. 255. 255. 255. 254. 255.
      255. 253. 66. 22. 0. 5. 2. 0. 0. 0. 2. 0. 1. 0. 0. 3. 106. 218.
      255. 255. 253. 255. 255. 255. 251. 255. 252. 255. 252. 255. 255.
      255. 251. 166. 104. 3. 0. 0. 2. 1. 0. 0. 2. 0. 3. 149. 254. 255.
      255. 254. 255. 254. 254. 253. 255. 251. 255. 254. 255. 255. 252.
      254. 255. 255. 255. 149. 41. 1. 2. 0. 1. 0. 3. 53. 190. 254. 255.
      255. 254. 255. 255. 255. 255. 255. 254. 255. 255. 253. 255. 255.
      253. 255. 254. 252. 255. 254. 211. 1. 0. 3. 3. 0. 0. 243. 253.
      255. 255. 251. 254. 254. 253. 252. 255. 255. 253. 254. 255. 255.
      252. 255. 254. 255. 255. 255. 255. 255. 255. 0. 2. 0. 0. 0. 22.
      253. 255. 254. 251. 255. 255. 253. 255. 255. 251. 255. 253. 255.
      255. 255. 255. 254. 255. 255. 252. 254. 252. 254. 254. 238. 12. 0.
      0. 1. 234. 255. 254. 255. 255. 253. 254. 255. 255. 253. 255. 251.
      255. 254. 254. 255. 255. 255. 255. 254. 255. 255. 255. 253. 255.
      253. 139. 3. 0. 61. 241. 253. 255. 255. 254. 255. 255. 253. 255.
      255. 193. 150. 148. 151. 148. 194. 253. 255. 255. 254. 255. 254.
      252. 255. 255. 254. 188. 20. 0. 138. 255. 255. 255. 252. 255. 255.
      255. 255. 255. 104. 44. 0. 0. 0. 2. 43. 105. 255. 253. 255. 249.
      255. 255. 254. 255. 255. 253. 168. 0. 143. 255. 255. 253. 255.
      255. 253. 253. 255. 91. 1. 3. 1. 1. 0. 0. 2. 3. 92. 255. 252. 255.
      253. 255. 253. 253. 255. 255. 255. 45. 244. 252. 255. 255. 255.
      254. 255. 255. 254. 40. 0. 0. 0. 2. 0. 2. 0. 0. 2. 145. 255. 255.
      255. 255. 254. 255. 253. 252. 252. 62. 255. 255. 255. 255. 254.
      255. 254. 255. 132. 2. 0. 0. 1. 0. 3. 0. 0. 0. 0. 0. 205. 255.
      254. 254. 255. 255. 252. 255. 255. 255. 251. 255. 254. 253. 255.
      252. 255. 248. 97. 1. 2. 0. 0. 3. 0. 0. 1. 2. 0. 0. 1. 208. 255.
      255. 252. 254. 255. 254. 255. 254. 255. 255. 255. 255. 255. 253.
      255. 226. 0. 0. 0. 1. 0. 0. 1. 0. 1. 0. 0. 1. 1. 62. 255. 255.
      250. 255. 254. 254. 252. 255. 255. 254. 252. 255. 255. 255. 253.
      225. 0. 1. 1. 0. 2. 1. 0. 1. 0. 2. 0. 0. 0. 28. 197. 254. 255.
      252. 255. 255. 255. 255. 254. 255. 255. 254. 254. 255. 255. 56. 4.
      0. 0. 3. 0. 0. 1. 0. 1. 0. 2. 0. 1. 0. 158. 255. 255. 255. 255.
      255. 255. 255. 255. 255. 254. 255. 255. 253. 255. 0. 0. 0. 3. 0.
      1. 0. 0. 0. 2. 0. 1. 0. 1. 0. 158. 255. 255. 255. 255. 255. 255.
      45. 255. 255. 255. 254. 251. 255. 255. 5. 0. 4. 0. 0. 1. 1. 0. 0.
      2. 0. 0. 0. 0. 1. 156. 255. 255. 255. 255. 255. 255. 49. 255. 254.
      253. 255. 255. 255. 253. 0. 0. 1. 0. 4. 0. 1. 0. 0. 1. 0. 2. 2. 0.
      1. 155. 255. 255. 255. 255. 255. 255. 45. 254. 255. 255. 255. 254.
      254. 255. 4. 0. 0. 1. 1. 0. 0. 1. 1. 1. 0. 0. 1. 0. 29. 200. 255.
      255. 255. 255. 255. 255. 47. 254. 254. 255. 252. 255. 255. 255.
      127. 3. 2. 0. 0. 1. 0. 1. 1. 0. 0. 0. 0. 3. 61. 253. 255. 255.
      255. 255. 255. 255. 48. 255. 255. 252. 255. 252. 255. 254. 229. 0.
      1. 0. 1. 4. 0. 0. 0. 0. 1. 2. 0. 0. 64. 255. 255. 255. 255. 255.
      255. 255. 46. 255. 254. 255. 254. 255. 254. 255. 224. 0. 0. 2. 0.
      0. 0. 0. 1. 0. 0. 0. 0. 0. 64. 255. 255. 255. 255. 255. 255. 255.
      47. 254. 254. 255. 255. 252. 255. 255. 225. 0. 0. 0. 0. 0. 0. 0.
      0. 0. 0. 0. 0. 0. 57. 248. 255. 255. 255. 255. 255. 255. 49. 255.
      255. 255. 255. 255. 254. 255. 225. 0. 0. 0. 0. 0. 0. 0. 0. 0. 0.
      0. 0. 0. 3. 157. 255. 255. 255. 255. 255. 255. 44. 254. 254. 254.
      254. 255. 253. 255. 225. 0. 0. 0. 0. 0. 0. 0. 0. 0. 1. 2. 0. 2. 0.
      156. 255. 255. 255. 255. 255. 255. 45. 255. 255. 255. 255. 255.
      254. 254. 225. 0. 0. 0. 0. 0. 0. 0. 2. 0. 0. 0. 0. 1. 0. 159. 255.
      255. 255. 255. 255. 255. 45. 255. 253. 255. 255. 253. 255. 254.
      225. 0. 0. 0. 0. 0. 0. 0. 0. 1. 1. 0. 2. 0. 3. 155. 255. 255. 255.
      255. 255. 255. 48. 255. 254. 255. 255. 252. 255. 255. 225. 0. 0.
      0. 0. 0. 0. 0. 0. 1. 0. 0. 0. 2. 60. 245. 255. 255. 255. 255. 255.
      255. 50. 248. 255. 255. 255. 254. 255. 254. 225. 0. 0. 0. 0. 0. 0.
      0. 2. 0. 0. 1. 0. 0. 63. 255. 255. 255. 255. 255. 255. 255. 34.
      229. 254. 251. 255. 255. 254. 255. 225. 0. 0. 0. 0. 0. 0. 0. 1. 0.
      2. 2. 0. 2. 65. 254. 255. 255. 255. 255. 255. 255. 0. 143. 254.
      255. 253. 255. 255. 254. 225. 0. 0. 0. 0. 0. 0. 0. 0. 0. 0. 0. 0.
      0. 64. 255. 255. 255. 255. 255. 255. 255. 2. 140. 254. 253. 255.
      251. 255. 255. 225. 0. 0. 0. 0. 0. 0. 0. 0. 0. 0. 0. 0. 0. 64.
      255. 255. 255. 255. 255. 255. 255. 2. 137. 255. 255. 253. 255.
      255. 253. 225. 0. 0. 0. 0. 0. 0. 0. 0. 0. 0. 0. 0. 0. 64. 255.
      255. 255. 255. 255. 255. 255. 0. 145. 250. 252. 255. 255. 255.
      255. 225. 0. 0. 0. 0. 0. 0. 0. 0. 0. 0. 0. 0. 0. 64. 255. 255.
      255. 255. 255. 255. 255. 3. 140. 255. 254. 255. 253. 254. 255.
      225. 0. 0. 0. 0. 0. 0. 0. 0. 0. 0. 0. 0. 0. 64. 255. 255. 255.
      255. 255. 255. 255. 12. 166. 255. 254. 253. 255. 255. 255. 225. 0.
      0. 0. 0. 0. 0. 0. 0. 0. 0. 0. 0. 0. 64. 255. 255. 255. 255. 255.
      255. 255. 46. 255. 255. 255. 255. 252. 255. 255. 225. 0. 0. 0. 0.
      0. 0. 0. 0. 0. 0. 0. 0. 0. 64. 255. 255. 255. 255. 255. 255. 255.
      46. 255. 255. 254. 254. 255. 255. 253. 225. 0. 0. 0. 0. 0. 0. 0.
      0. 0. 0. 0. 0. 0. 64. 255. 255. 255. 255. 255. 255. 255. 47. 255.
      254. 255. 255. 255. 255. 255. 226. 0. 0. 0. 3. 0. 0. 2. 0. 0. 3.
      0. 2. 2. 60. 255. 255. 255. 255. 255. 255. 255. 47. 255. 254. 255.
      255. 255. 255. 255. 222. 6. 0. 2. 0. 2. 2. 0. 1. 0. 0. 2. 0. 0.
      69. 253. 255. 255. 255. 255. 255. 255. 47. 255. 254. 255. 255.
      255. 255. 255. 225. 0. 0. 1. 4. 0. 0. 1. 1. 1. 0. 1. 1. 0. 62.
      255. 255. 255. 255. 255. 255. 255. 47. 255. 254. 255. 255. 255.
      255. 255. 228. 0. 2. 0. 0. 3. 0. 2. 0. 0. 0. 0. 0. 2. 65. 254.
      255. 255. 255. 255. 255. 255. 47. 255. 254. 255. 255. 255. 255.
      255. 223. 0. 0. 2. 0. 0. 2. 0. 0. 3. 1. 1. 0. 0. 63. 255. 255.
      255. 255. 255. 255. 255. 47. 255. 254. 255. 255. 255. 255. 255.
      224. 0. 2. 0. 0. 1. 2. 0. 1. 0. 0. 0. 5. 0. 62. 255. 255. 255.
      255. 255. 255. 255. 47. 255. 254. 255. 255. 255. 255. 255. 247.
      103. 1. 0. 3. 0. 0. 1. 1. 2. 0. 2. 0. 0. 206. 255. 255. 255. 255.
      255. 255. 255. 47. 255. 254. 255. 255. 255. 255. 255. 255. 125. 3.
      0. 0. 0. 2. 0. 0. 0. 4. 0. 0. 207. 255. 255. 255. 255. 255. 255.
      255. 255. 47. 255. 255. 255. 255. 254. 255. 254. 255. 142. 5. 0.
      0. 0. 2. 0. 0. 1. 0. 18. 144. 253. 254. 255. 254. 255. 255. 252.
      255. 255. 36. 225. 255. 255. 254. 252. 255. 255. 252. 255. 88. 51.
      1. 0. 1. 0. 1. 0. 48. 255. 253. 255. 255. 254. 255. 255. 255. 255.
      251. 255. 0. 140. 254. 255. 253. 255. 254. 255. 255. 255. 255.
      220. 107. 108. 0. 0. 0. 46. 220. 253. 255. 252. 255. 254. 250.
      255. 253. 255. 255. 253. 1. 141. 254. 255. 255. 254. 255. 253.
      253. 254. 255. 255. 254. 255. 145. 153. 151. 193. 253. 255. 254.
      255. 253. 255. 255. 255. 254. 250. 255. 254. 0. 140. 255. 254.
      250. 255. 255. 255. 255. 253. 255. 255. 255. 255. 255. 253. 253.
      254. 255. 253. 251. 255. 255. 255. 255. 254. 253. 255. 253. 101.
      3. 9. 235. 254. 255. 255. 251. 254. 255. 253. 253. 255. 255. 251.
      255. 254. 255. 255. 254. 255. 255. 253. 255. 252. 253. 255. 255.
      253. 255. 46. 0. 5. 0. 235. 249. 255. 255. 255. 254. 255. 255.
      252. 255. 255. 253. 255. 255. 251. 255. 255. 254. 253. 255. 255.
      255. 254. 252. 238. 0. 0. 0. 0. 3. 0. 164. 255. 255. 253. 255.
      252. 255. 254. 255. 255. 255. 254. 254. 255. 255. 255. 255. 255.
      253. 255. 254. 255. 255. 174. 1. 0. 0. 1. 0. 2. 95. 255. 254. 255.
      254. 255. 255. 252. 254. 255. 252. 255. 254. 255. 254. 253. 255.
      255. 255. 254. 255. 255. 180. 0. 1. 1. 2. 0. 0. 0. 0. 108. 255.
      255. 255. 255. 253. 255. 255. 251. 255. 255. 254. 252. 254. 255.
      253. 254. 255. 254. 255. 203. 28. 0. 0. 0. 1. 0. 6. 0. 0. 0. 63.
      206. 255. 254. 254. 255. 255. 255. 251. 255. 255. 255. 253. 251.
      255. 255. 255. 255. 255. 42. 2. 3. 1. 2. 0. 0. 0. 1. 0. 2. 0. 17.
      49. 254. 255. 253. 255. 254. 255. 255. 252. 255. 255. 255. 255.
      255. 252. 110. 22. 0. 1. 0. 0. 0.</_>
    <_>
      0. 2. 1. 0. 2. 1. 0. 0. 0. 0. 3. 0. 2. 1. 0. 255. 255. 255. 253.
      254. 255. 251. 2. 1. 2. 0. 2. 0. 0. 1. 0. 0. 1. 0. 0. 2. 0. 5. 2.
      0. 0. 0. 1. 0. 253. 255. 253. 255. 255. 254. 254. 255. 0. 0. 0. 1.
      1. 0. 0. 0. 3. 0. 3. 0. 0. 0. 5. 0. 0. 0. 255. 255. 255. 255. 255.
      252. 255. 253. 254. 252. 255. 253. 255. 1. 1. 1. 0. 0. 1. 0. 0. 0.
      0. 6. 2. 0. 0. 0. 0. 255. 254. 253. 254. 254. 255. 255. 254. 254.
      255. 254. 252. 253. 255. 0. 0. 0. 0. 1. 0. 2. 0. 3. 0. 0. 0. 4. 0.
      3. 255. 251. 255. 255. 255. 252. 254. 255. 255. 254. 255. 254.
      255. 255. 254. 255. 255. 1. 1. 0. 0. 0. 0. 0. 2. 0. 0. 0. 2. 253.
      254. 255. 254. 254. 255. 255. 255. 255. 255. 255. 254. 255. 252.
      253. 255. 254. 255. 0. 0. 1. 0. 1. 1. 0. 2. 0. 0. 0. 255. 255.
      255. 253. 254. 255. 254. 253. 255. 254. 254. 255. 255. 253. 255.
      254. 255. 255. 255. 0. 0. 1. 0. 0. 0. 3. 0. 1. 2. 254. 255. 254.
      255. 255. 255. 255. 255. 255. 255. 254. 255. 253. 255. 255. 254.
      255. 253. 255. 253. 3. 0. 0. 1. 0. 1. 0. 0. 255. 252. 254. 255.
      255. 253. 255. 255. 255. 252. 255. 255. 254. 255. 255. 253. 255.
      255. 255. 253. 255. 255. 0. 1. 0. 0. 2. 1. 0. 255. 252. 255. 255.
      253. 255. 255. 252. 252. 0. 1. 1. 0. 2. 0. 255. 255. 253. 255.
      255. 255. 253. 255. 3. 0. 1. 0. 0. 0. 0. 255. 255. 254. 253. 255.
      255. 255. 255. 4. 0. 0. 0. 0. 0. 0. 255. 252. 255. 254. 255. 254.
      255. 254. 0. 1. 0. 4. 0. 0. 0. 255. 255. 255. 255. 254. 251. 254.
      0. 0. 3. 0. 1. 0. 0. 0. 255. 255. 255. 255. 255. 250. 255. 255. 0.
      0. 2. 0. 0. 2. 2. 251. 255. 255. 252. 255. 255. 0. 3. 0. 2. 1. 0.
      1. 1. 0. 0. 254. 255. 255. 254. 255. 255. 252. 1. 1. 0. 3. 1. 253.
      252. 255. 255. 254. 254. 254. 254. 1. 0. 4. 0. 2. 0. 0. 1. 0. 0.
      255. 255. 251. 254. 254. 255. 255. 0. 1. 2. 0. 1. 254. 255. 255.
      255. 255. 255. 255. 255. 0. 2. 0. 2. 0. 0. 0. 1. 1. 3. 252. 255.
      255. 255. 255. 253. 255. 255. 0. 0. 0. 0. 255. 254. 255. 253. 255.
      255. 254. 255. 0. 2. 0. 0. 1. 1. 0. 0. 0. 2. 255. 254. 255. 255.
      252. 255. 255. 255. 255. 0. 1. 0. 254. 255. 255. 254. 255. 252.
      255. 255. 0. 3. 0. 0. 2. 0. 1. 0. 0. 2. 254. 255. 254. 253. 255.
      253. 254. 255. 255. 0. 0. 1. 255. 250. 255. 255. 252. 255. 254.
      255. 255. 0. 2. 0. 0. 1. 0. 2. 0. 0. 255. 255. 255. 255. 254. 255.
      255. 254. 255. 0. 0. 3. 255. 255. 255. 254. 255. 254. 255. 254.
      255. 2. 0. 3. 1. 1. 1. 0. 0. 4. 0. 252. 254. 255. 254. 254. 254.
      255. 253. 0. 2. 0. 253. 253. 252. 255. 253. 255. 255. 254. 0. 0.
      7. 0. 2. 0. 0. 0. 2. 0. 0. 255. 255. 255. 254. 255. 255. 255. 255.
      1. 0. 0. 255. 255. 254. 255. 255. 253. 255. 254. 4. 0. 0. 0. 0. 2.
      0. 1. 0. 0. 2. 0. 253. 255. 255. 254. 254. 253. 255. 0. 1. 1. 253.
      254. 255. 255. 254. 255. 254. 255. 253. 1. 1. 2. 0. 2. 2. 0. 1. 2.
      0. 0. 255. 254. 255. 255. 254. 254. 255. 255. 0. 0. 255. 255. 255.
      248. 255. 255. 253. 255. 255. 255. 0. 0. 1. 0. 0. 0. 2. 0. 1. 4.
      253. 253. 255. 254. 254. 255. 248. 254. 0. 5. 0. 0. 255. 255. 254.
      255. 255. 254. 255. 254. 1. 2. 0. 1. 0. 1. 1. 0. 3. 0. 255. 255.
      254. 255. 255. 253. 255. 255. 0. 0. 0. 0. 255. 254. 255. 255. 255.
      255. 255. 255. 0. 0. 2. 0. 1. 0. 0. 0. 0. 0. 255. 255. 255. 255.
      254. 255. 255. 0. 1. 0. 0. 0. 255. 254. 255. 255. 255. 255. 255.
      254. 4. 0. 0. 2. 0. 1. 0. 0. 0. 0. 255. 255. 255. 255. 255. 255.
      254. 255. 0. 0. 0. 0. 255. 254. 255. 255. 255. 255. 254. 255. 0.
      0. 3. 1. 0. 0. 0. 0. 0. 0. 255. 255. 255. 255. 255. 255. 250. 255.
      1. 3. 0. 0. 255. 254. 255. 255. 255. 255. 255. 253. 3. 2. 0. 0. 2.
      0. 0. 0. 0. 0. 255. 255. 255. 255. 253. 252. 255. 255. 0. 0. 0. 0.
      255. 254. 255. 255. 255. 255. 253. 255. 0. 0. 1. 1. 0. 3. 0. 0. 0.
      0. 255. 255. 255. 255. 255. 255. 255. 255. 0. 1. 0. 0. 255. 254.
      255. 255. 255. 255. 255. 255. 0. 0. 0. 1. 0. 0. 0. 0. 0. 0. 255.
      255. 255. 255. 255. 255. 255. 251. 0. 3. 0. 0. 255. 254. 255. 255.
      255. 255. 255. 249. 255. 2. 3. 0. 1. 0. 0. 0. 0. 0. 255. 255. 255.
      255. 254. 255. 253. 255. 3. 0. 0. 0. 255. 254. 255. 255. 255. 255.
      255. 255. 255. 0. 0. 2. 0. 0. 0. 0. 0. 0. 255. 255. 255. 255. 255.
      253. 255. 255. 0. 0. 0. 0. 254. 255. 255. 254. 255. 254. 253. 255.
      0. 2. 0. 0. 0. 1. 0. 0. 1. 0. 2. 255. 253. 255. 255. 255. 255.
      255. 255. 255. 2. 3. 0. 255. 253. 255. 255. 255. 255. 252. 3. 0.
      0. 1. 0. 0. 0. 4. 0. 2. 0. 1. 254. 255. 255. 255. 255. 255. 255.
      255. 0. 0. 251. 255. 255. 255. 253. 255. 255. 254. 254. 0. 0. 1.
      2. 0. 1. 0. 2. 3. 255. 254. 255. 253. 255. 255. 255. 255. 255.
      255. 0. 0. 255. 252. 254. 253. 255. 254. 255. 255. 255. 254. 4. 0.
      2. 0. 1. 1. 0. 0. 255. 253. 254. 255. 255. 255. 255. 255. 255.
      255. 0. 1. 255. 255. 255. 255. 252. 255. 253. 255. 253. 0. 0. 0.
      0. 2. 0. 4. 0. 1. 2. 255. 255. 253. 255. 255. 255. 255. 255. 255.
      0. 0. 0. 255. 254. 252. 255. 252. 255. 253. 2. 1. 0. 2. 0. 1. 1.
      0. 2. 0. 0. 3. 251. 255. 255. 255. 255. 255. 255. 255. 0. 0. 3.
      254. 255. 255. 253. 255. 254. 255. 252. 0. 2. 0. 2. 0. 2. 0. 0. 3.
      0. 0. 255. 255. 255. 255. 255. 255. 255. 255. 0. 3. 0. 0. 254.
      255. 255. 255. 255. 255. 255. 3. 0. 0. 2. 0. 0. 1. 0. 0. 3. 0.
      254. 254. 255. 255. 255. 255. 255. 255. 0. 0. 2. 255. 255. 255.
      255. 254. 255. 252. 255. 1. 0. 1. 1. 0. 0. 0. 0. 0. 1. 0. 255.
      255. 253. 255. 255. 254. 255. 255. 0. 5. 0. 253. 254. 255. 251.
      255. 255. 255. 250. 2. 0. 0. 0. 0. 0. 0. 0. 0. 1. 0. 255. 255.
      255. 255. 255. 255. 251. 255. 0. 0. 0. 255. 255. 252. 255. 254.
      255. 252. 255. 0. 0. 1. 2. 0. 0. 0. 0. 0. 1. 0. 255. 255. 255.
      252. 254. 255. 255. 255. 0. 0. 2. 0. 253. 253. 255. 252. 252. 255.
      255. 253. 2. 1. 0. 2. 0. 0. 0. 0. 1. 0. 255. 255. 255. 255. 255.
      255. 252. 255. 0. 0. 0. 0. 3. 255. 255. 255. 255. 255. 255. 255.
      0. 0. 0. 0. 0. 0. 0. 0. 1. 0. 255. 255. 253. 255. 255. 252. 255.
      255. 0. 1. 0. 1. 0. 250. 253. 255. 253. 255. 251. 255. 3. 0. 3. 0.
      0. 0. 0. 0. 1. 0. 255. 255. 255. 255. 254. 253. 255. 255. 0. 1. 0.
      0. 2. 255. 255. 255. 255. 255. 255. 253. 2. 0. 0. 0. 0. 0. 0. 0.
      1. 0. 255. 255. 254. 254. 255. 255. 254. 253. 1. 0. 2. 0. 0. 254.
      255. 253. 255. 254. 255. 255. 254. 1. 0. 0. 0. 0. 0. 0. 1. 0. 255.
      255. 255. 255. 254. 255. 0. 0. 0. 0. 1. 0. 0. 255. 255. 255. 255.
      253. 255. 254. 255. 0. 0. 0. 0. 2. 0. 1. 0. 0. 253. 255. 255. 255.
      255. 255. 2. 0. 0. 0. 0. 1. 0. 255. 255. 252. 255. 254. 252. 255.
      252. 0. 3. 1. 2. 0. 0. 2. 255. 255. 255. 255. 255. 255. 255. 255.
      0. 0. 0. 2. 0. 0. 0. 255. 254. 255. 252. 255. 255. 251. 255. 255.
      255. 0. 0. 0. 255. 253. 255. 255. 253. 255. 255. 255. 255. 253. 0.
      3. 3. 0. 0. 0. 4. 255. 252. 254. 255. 252. 255. 254. 253. 255.
      254. 255. 254. 255. 254. 255. 254. 254. 255. 253. 253. 253. 4. 1.
      0. 0. 1. 0. 1. 0. 0. 253. 255. 254. 255. 255. 254. 255. 255. 255.
      253. 255. 255. 255. 251. 254. 255. 253. 255. 255. 255. 2. 0. 0. 0.
      2. 0. 3. 1. 1. 3. 255. 255. 255. 253. 255. 253. 251. 255. 254.
      255. 254. 254. 254. 255. 255. 251. 255. 255. 254. 0. 2. 0. 1. 0.
      1. 0. 1. 0. 0. 0. 254. 255. 255. 254. 255. 255. 254. 253. 255.
      252. 255. 255. 254. 255. 255. 254. 255. 255. 0. 2. 0. 6. 0. 0. 1.
      0. 0. 0. 2. 2. 0. 255. 254. 255. 252. 255. 254. 255. 254. 255.
      254. 255. 255. 254. 253. 255. 255. 0. 1. 1. 0. 0. 2. 0. 0. 1. 0.
      0. 2. 0. 0. 1. 255. 255. 255. 255. 254. 255. 254. 255. 255. 255.
      255. 255. 255. 0. 0. 4. 0. 0. 0. 0. 0. 0. 0. 0. 3. 1. 0. 0. 0. 1.
      1. 255. 255. 253. 255. 253. 255. 255. 253. 255. 254. 254. 255. 1.
      1. 0. 1. 0. 0. 0. 0. 0. 0. 0. 2. 0. 0. 4. 0. 0. 0. 0. 0. 0. 0.
      255. 255. 255. 255. 254. 1. 0. 1. 0. 0. 1. 0. 0. 0. 0. 0. 0. 0. 0.
      0. 0. 1. 0. 2. 1. 1. 1. 2. 0. 0. 255. 255. 253. 254. 1. 2. 0. 0.
      3. 0. 2. 0. 0. 0. 0. 0. 0. 0.</_>
    <_>
      2. 0. 2. 0. 1. 0. 1. 0. 0. 251. 255. 255. 253. 255. 255. 255. 255.
      255. 0. 0. 3. 0. 1. 0. 1. 0. 0. 1. 0. 3. 0. 6. 0. 1. 0. 0. 0. 0.
      255. 255. 254. 250. 255. 254. 253. 255. 255. 252. 255. 254. 253.
      254. 0. 2. 0. 0. 0. 3. 0. 0. 0. 0. 2. 0. 4. 3. 0. 0. 251. 255.
      253. 255. 253. 255. 255. 255. 255. 255. 251. 255. 255. 255. 255.
      254. 1. 0. 0. 0. 1. 0. 0. 3. 4. 0. 0. 0. 0. 255. 255. 255. 254.
      255. 255. 252. 253. 255. 253. 255. 255. 255. 253. 253. 252. 255.
      254. 2. 1. 0. 0. 2. 0. 0. 0. 2. 0. 253. 255. 254. 255. 252. 255.
      254. 250. 255. 255. 255. 255. 252. 255. 254. 255. 255. 255. 255.
      255. 254. 0. 1. 0. 0. 3. 0. 2. 255. 253. 255. 254. 254. 255. 255.
      253. 255. 255. 255. 254. 255. 255. 255. 255. 252. 254. 255. 252.
      255. 254. 253. 255. 2. 2. 0. 0. 3. 0. 252. 255. 255. 249. 255.
      254. 255. 252. 255. 253. 255. 255. 252. 253. 254. 255. 255. 255.
      255. 255. 255. 255. 255. 255. 1. 0. 2. 0. 1. 255. 254. 255. 254.
      255. 254. 254. 255. 0. 0. 0. 0. 1. 255. 255. 255. 253. 255. 255.
      254. 255. 255. 254. 255. 255. 0. 3. 3. 0. 0. 254. 255. 255. 255.
      255. 254. 255. 1. 0. 0. 2. 0. 0. 1. 255. 255. 255. 255. 254. 255.
      255. 254. 255. 255. 254. 1. 0. 0. 1. 0. 255. 255. 254. 253. 255.
      255. 1. 1. 0. 0. 0. 1. 3. 0. 0. 255. 254. 255. 255. 252. 255. 255.
      255. 255. 254. 0. 0. 0. 0. 1. 255. 254. 255. 255. 253. 255. 0. 0.
      0. 4. 0. 0. 2. 0. 0. 254. 255. 255. 254. 255. 255. 254. 251. 255.
      253. 1. 0. 1. 0. 2. 253. 255. 255. 252. 255. 253. 1. 1. 2. 0. 1.
      0. 0. 0. 4. 255. 253. 251. 255. 255. 253. 255. 255. 255. 254. 2.
      0. 1. 0. 0. 255. 254. 255. 254. 255. 255. 0. 0. 0. 2. 0. 0. 0. 2.
      0. 0. 255. 255. 254. 255. 250. 255. 255. 255. 255. 255. 2. 0. 255.
      253. 255. 252. 255. 255. 255. 255. 2. 1. 1. 0. 0. 1. 0. 2. 2. 1.
      253. 255. 251. 255. 255. 253. 255. 255. 249. 254. 3. 4. 255. 255.
      254. 255. 255. 255. 253. 254. 0. 2. 0. 0. 3. 0. 5. 0. 1. 0. 255.
      255. 255. 251. 255. 255. 253. 254. 255. 254. 0. 2. 254. 255. 253.
      255. 255. 252. 255. 255. 0. 3. 0. 0. 0. 1. 0. 1. 1. 1. 0. 254.
      253. 255. 253. 255. 255. 254. 254. 254. 255. 0. 255. 255. 255.
      255. 255. 255. 255. 255. 0. 0. 0. 3. 0. 0. 2. 0. 1. 0. 3. 0. 255.
      254. 255. 255. 255. 253. 255. 254. 252. 255. 255. 255. 255. 255.
      255. 255. 255. 255. 1. 0. 2. 0. 0. 0. 0. 1. 0. 3. 0. 0. 255. 255.
      255. 254. 255. 254. 255. 254. 255. 0. 255. 255. 255. 255. 255.
      255. 255. 255. 0. 1. 0. 1. 2. 0. 0. 2. 1. 1. 1. 0. 255. 254. 252.
      255. 253. 254. 251. 255. 3. 0. 255. 255. 255. 255. 255. 255. 255.
      255. 0. 1. 2. 0. 1. 0. 4. 0. 0. 0. 1. 0. 255. 255. 255. 253. 255.
      255. 255. 252. 1. 3. 255. 255. 255. 255. 255. 255. 255. 255. 2. 0.
      1. 0. 0. 2. 0. 0. 0. 2. 0. 1. 255. 251. 255. 253. 254. 254. 255.
      255. 2. 0. 255. 255. 255. 255. 255. 255. 255. 255. 254. 1. 0. 2.
      0. 3. 1. 0. 0. 3. 0. 254. 255. 255. 254. 255. 255. 252. 255. 255.
      0. 2. 255. 255. 255. 255. 255. 255. 255. 255. 255. 252. 1. 0. 1.
      0. 0. 2. 0. 0. 251. 255. 255. 253. 255. 255. 254. 255. 255. 254.
      1. 0. 255. 255. 255. 255. 255. 255. 255. 255. 255. 255. 0. 1. 0.
      0. 3. 0. 1. 0. 255. 255. 254. 255. 255. 253. 255. 254. 255. 255.
      0. 1. 254. 255. 255. 254. 255. 252. 255. 255. 253. 255. 0. 0. 2.
      0. 0. 1. 0. 0. 255. 254. 255. 253. 255. 253. 255. 253. 255. 255.
      0. 0. 255. 250. 255. 255. 252. 255. 254. 255. 255. 255. 0. 1. 0.
      0. 5. 0. 0. 0. 255. 253. 253. 255. 252. 255. 255. 255. 255. 255.
      0. 1. 255. 255. 255. 254. 255. 254. 255. 254. 255. 253. 0. 1. 0.
      0. 1. 0. 0. 2. 251. 254. 255. 254. 255. 253. 255. 254. 253. 255.
      0. 1. 253. 253. 252. 255. 253. 255. 255. 254. 255. 253. 3. 1. 3.
      0. 0. 2. 0. 0. 255. 254. 255. 253. 252. 255. 255. 255. 255. 253.
      3. 0. 255. 255. 254. 255. 255. 253. 255. 254. 0. 0. 0. 0. 0. 0. 2.
      0. 4. 0. 255. 254. 251. 255. 255. 252. 254. 253. 255. 255. 0. 0.
      253. 254. 255. 255. 254. 255. 254. 255. 0. 1. 0. 0. 0. 0. 0. 1. 0.
      0. 251. 255. 255. 254. 254. 255. 255. 255. 255. 255. 0. 0. 255.
      255. 255. 248. 255. 255. 253. 255. 0. 1. 1. 0. 3. 0. 3. 0. 2. 2.
      0. 254. 255. 252. 255. 255. 253. 255. 255. 253. 255. 253. 0. 0.
      255. 255. 254. 255. 255. 254. 255. 0. 0. 1. 1. 1. 0. 1. 0. 0. 2.
      1. 253. 255. 255. 253. 255. 255. 254. 255. 254. 255. 0. 0. 255.
      254. 255. 255. 252. 255. 255. 255. 0. 1. 0. 0. 0. 0. 0. 0. 0. 0.
      255. 255. 255. 255. 255. 255. 255. 255. 255. 255. 0. 3. 254. 255.
      254. 255. 255. 253. 255. 255. 0. 1. 0. 0. 0. 0. 0. 0. 0. 0. 255.
      255. 255. 255. 255. 255. 255. 255. 255. 255. 1. 254. 255. 253.
      255. 252. 254. 255. 255. 255. 0. 1. 0. 0. 0. 0. 0. 0. 0. 0. 255.
      255. 255. 255. 255. 255. 255. 255. 255. 255. 253. 255. 254. 255.
      255. 253. 255. 255. 255. 255. 0. 1. 0. 0. 0. 0. 0. 0. 0. 0. 255.
      255. 255. 255. 255. 255. 255. 255. 255. 255. 255. 254. 253. 255.
      254. 255. 251. 255. 255. 255. 0. 1. 0. 0. 0. 0. 0. 0. 0. 0. 255.
      255. 255. 255. 255. 255. 255. 255. 255. 255. 255. 254. 255. 254.
      253. 255. 255. 253. 255. 255. 0. 1. 0. 0. 0. 0. 0. 0. 0. 0. 255.
      255. 255. 255. 255. 255. 255. 255. 255. 255. 254. 255. 253. 255.
      255. 255. 255. 254. 255. 255. 0. 1. 0. 0. 0. 0. 0. 0. 0. 0. 255.
      255. 255. 255. 255. 255. 255. 255. 255. 255. 255. 255. 255. 252.
      255. 255. 253. 255. 255. 255. 0. 1. 0. 0. 0. 0. 0. 0. 0. 0. 255.
      255. 255. 255. 255. 255. 255. 255. 255. 255. 255. 255. 255. 255.
      255. 255. 255. 255. 255. 255. 0. 1. 0. 0. 0. 0. 0. 0. 0. 0. 255.
      255. 255. 255. 255. 255. 255. 255. 255. 255. 255. 255. 255. 255.
      255. 255. 255. 255. 255. 255. 0. 1. 0. 0. 0. 0. 0. 0. 0. 0. 255.
      255. 255. 255. 255. 255. 255. 255. 255. 255. 255. 255. 255. 255.
      255. 255. 255. 255. 255. 255. 0. 1. 0. 0. 0. 0. 0. 0. 0. 0. 255.
      255. 255. 255. 255. 255. 255. 255. 255. 255. 255. 255. 255. 255.
      255. 255. 255. 255. 255. 255. 0. 1. 0. 0. 0. 0. 0. 0. 0. 0. 255.
      255. 255. 255. 255. 255. 255. 255. 255. 255. 255. 255. 255. 255.
      255. 255. 255. 255. 255. 255. 0. 1. 0. 0. 0. 0. 0. 0. 0. 0. 255.
      255. 255. 255. 255. 255. 255. 255. 255. 255. 255. 255. 255. 255.
      255. 255. 255. 255. 255. 255. 0. 1. 0. 0. 0. 0. 0. 0. 0. 0. 255.
      255. 255. 255. 255. 255. 255. 255. 255. 255. 255. 255. 255. 255.
      255. 255. 255. 255. 255. 255. 0. 1. 0. 0. 0. 0. 0. 0. 0. 0. 255.
      255. 255. 255. 255. 255. 255. 255. 255. 255. 255. 255. 255. 255.
      255. 255. 255. 255. 255. 255. 0. 1. 0. 0. 0. 0. 0. 0. 0. 0. 255.
      255. 255. 255. 255. 255. 255. 255. 255. 255. 255. 255. 254. 255.
      255. 252. 255. 254. 253. 255. 1. 0. 0. 0. 1. 1. 0. 0. 2. 1. 253.
      255. 255. 254. 255. 252. 255. 255. 255. 254. 254. 252. 254. 254.
      255. 255. 254. 255. 255. 252. 253. 255. 0. 0. 0. 0. 0. 1. 0. 0.
      255. 251. 254. 255. 252. 255. 253. 251. 1. 0. 255. 255. 255. 255.
      254. 255. 252. 255. 253. 254. 255. 253. 255. 0. 2. 3. 1. 1. 0.
      255. 253. 255. 255. 253. 255. 255. 253. 255. 2. 0. 0. 0. 253. 255.
      254. 254. 255. 255. 255. 253. 255. 255. 255. 255. 253. 253. 255.
      253. 255. 251. 255. 255. 253. 255. 255. 251. 255. 253. 0. 1. 0. 2.
      255. 255. 253. 255. 255. 255. 254. 255. 254. 255. 254. 254. 255.
      253. 254. 255. 255. 255. 252. 255. 254. 253. 253. 255. 255. 255.
      0. 2. 3. 0. 255. 255. 255. 255. 253. 255. 254. 255. 255. 255. 255.
      255. 252. 255. 255. 255. 252. 255. 255. 255. 255. 255. 255. 253.
      255. 0. 0. 0. 0. 6. 0. 251. 254. 255. 255. 255. 255. 255. 254.
      252. 255. 255. 251. 255. 255. 254. 255. 254. 254. 255. 253. 253.
      255. 0. 0. 0. 3. 0. 1. 0. 0. 255. 255. 255. 254. 255. 255. 255.
      255. 255. 253. 255. 253. 255. 253. 255. 255. 255. 255. 254. 255.
      255. 0. 0. 1. 2. 0. 1. 0. 5. 0. 0. 2. 253. 255. 253. 255. 255.
      255. 255. 255. 255. 255. 255. 255. 255. 254. 254. 255. 254. 255.
      0. 0. 0. 0. 0. 0. 0. 1. 0. 2. 4. 0. 254. 250. 255. 255. 255. 255.
      255. 255. 255. 255. 255. 255. 253. 255. 255. 254. 254. 2. 0. 0. 0.
      0. 0. 0. 0. 1. 0. 0. 0. 0. 1. 255. 254. 255. 255. 255. 255. 255.
      255. 255. 255. 254. 254. 251. 2. 0. 1. 1. 0. 0. 0. 0. 0. 0. 0. 0.
      0. 0. 2. 1. 0. 0. 0. 0. 0. 0. 0. 0. 0. 0. 0. 1. 3. 0. 2. 0. 1. 0.
      0. 0. 0. 0. 0. 0. 0.</_>
    <_>
      0. 0. 1. 0. 2. 0. 0. 1. 2. 0. 0. 4. 253. 255. 255. 255. 255. 252.
      255. 255. 255. 254. 255. 254. 0. 4. 0. 1. 1. 0. 1. 1. 0. 1. 0. 2.
      1. 0. 0. 0. 3. 0. 255. 255. 255. 254. 255. 253. 255. 255. 252.
      255. 250. 255. 2. 0. 1. 0. 0. 0. 0. 0. 0. 0. 1. 0. 2. 0. 0. 254.
      253. 255. 255. 252. 255. 255. 253. 254. 254. 255. 255. 254. 255.
      253. 255. 254. 0. 0. 0. 1. 2. 0. 0. 2. 0. 3. 0. 1. 255. 255. 255.
      249. 255. 255. 253. 255. 255. 255. 255. 253. 255. 255. 255. 253.
      255. 252. 255. 2. 1. 0. 0. 1. 2. 0. 0. 255. 255. 253. 254. 255.
      255. 253. 255. 255. 255. 253. 254. 254. 253. 255. 254. 255. 255.
      255. 252. 255. 255. 0. 1. 0. 1. 0. 0. 0. 4. 255. 252. 255. 255.
      253. 255. 255. 253. 255. 255. 253. 255. 255. 255. 251. 255. 255.
      253. 255. 255. 253. 255. 0. 0. 6. 0. 0. 3. 1. 252. 254. 255. 255.
      255. 254. 254. 255. 253. 255. 255. 255. 254. 254. 255. 255. 255.
      254. 252. 255. 255. 255. 255. 0. 3. 0. 0. 1. 0. 0. 255. 253. 255.
      255. 254. 255. 253. 255. 255. 0. 0. 0. 0. 254. 255. 255. 253. 255.
      255. 254. 254. 255. 255. 255. 0. 0. 1. 0. 1. 253. 254. 255. 252.
      255. 254. 255. 254. 255. 0. 0. 2. 0. 0. 1. 255. 255. 255. 255.
      255. 253. 255. 255. 254. 255. 0. 1. 0. 0. 255. 255. 255. 253. 255.
      254. 255. 254. 1. 0. 0. 3. 0. 0. 0. 0. 0. 254. 255. 255. 253. 255.
      255. 254. 255. 253. 3. 0. 2. 253. 255. 255. 255. 253. 255. 255.
      254. 254. 0. 1. 5. 0. 1. 0. 3. 0. 1. 255. 252. 255. 255. 253. 254.
      251. 255. 254. 0. 5. 252. 255. 251. 255. 255. 255. 252. 255. 254.
      2. 0. 2. 0. 0. 1. 0. 0. 2. 0. 1. 255. 255. 254. 255. 255. 255.
      255. 253. 255. 254. 255. 255. 255. 253. 249. 255. 255. 255. 255.
      0. 2. 2. 0. 0. 2. 0. 2. 0. 0. 0. 255. 255. 251. 255. 255. 251.
      255. 255. 255. 0. 255. 250. 255. 255. 255. 252. 255. 252. 0. 0. 0.
      0. 3. 0. 0. 1. 0. 2. 2. 0. 255. 255. 255. 254. 255. 255. 255. 253.
      0. 0. 250. 255. 253. 255. 255. 254. 255. 255. 0. 2. 2. 0. 1. 0. 0.
      0. 1. 0. 0. 1. 1. 252. 255. 253. 255. 253. 255. 254. 2. 0. 255.
      255. 254. 253. 255. 254. 253. 255. 1. 0. 0. 1. 0. 0. 2. 0. 0. 0.
      0. 0. 0. 255. 255. 255. 255. 255. 253. 255. 0. 0. 255. 255. 255.
      255. 255. 255. 255. 255. 1. 0. 1. 0. 1. 2. 0. 0. 1. 0. 0. 0. 255.
      253. 255. 255. 255. 254. 255. 255. 0. 1. 255. 255. 255. 255. 255.
      255. 255. 255. 1. 0. 1. 1. 0. 0. 0. 2. 1. 0. 0. 2. 255. 255. 253.
      255. 254. 255. 255. 254. 1. 0. 255. 255. 255. 255. 255. 255. 255.
      255. 0. 1. 0. 1. 0. 3. 0. 0. 0. 0. 0. 0. 255. 254. 255. 252. 255.
      252. 255. 255. 0. 2. 255. 255. 255. 255. 255. 255. 255. 255. 1. 0.
      1. 2. 0. 0. 5. 0. 1. 2. 0. 1. 251. 255. 255. 255. 254. 254. 255.
      255. 2. 0. 255. 255. 255. 255. 255. 255. 255. 255. 0. 5. 0. 0. 0.
      1. 0. 0. 2. 0. 0. 1. 255. 251. 255. 254. 255. 255. 255. 252. 1. 3.
      255. 255. 255. 255. 255. 255. 255. 255. 0. 0. 0. 0. 4. 0. 0. 3. 0.
      1. 0. 0. 253. 255. 254. 255. 253. 254. 251. 255. 3. 0. 255. 255.
      255. 255. 255. 255. 255. 255. 255. 0. 4. 0. 0. 0. 4. 0. 0. 5. 0.
      0. 0. 255. 253. 255. 255. 254. 255. 254. 255. 0. 255. 255. 255.
      255. 255. 255. 255. 255. 255. 0. 0. 1. 0. 0. 0. 2. 0. 1. 0. 2.
      255. 252. 255. 254. 255. 253. 255. 254. 252. 255. 254. 255. 254.
      255. 255. 255. 254. 255. 255. 0. 0. 0. 0. 2. 0. 1. 1. 0. 2. 0.
      255. 255. 253. 255. 255. 255. 254. 255. 255. 254. 255. 255. 255.
      255. 255. 254. 255. 254. 253. 2. 0. 1. 0. 0. 2. 0. 0. 0. 0. 0.
      255. 254. 253. 255. 255. 254. 255. 255. 255. 255. 253. 255. 254.
      252. 255. 255. 253. 255. 255. 0. 0. 0. 0. 1. 1. 0. 1. 0. 1. 2.
      255. 255. 255. 254. 253. 255. 255. 255. 253. 254. 255. 255. 255.
      255. 255. 255. 255. 254. 255. 3. 1. 2. 0. 0. 0. 2. 0. 0. 0. 0.
      254. 255. 254. 255. 255. 253. 253. 255. 254. 1. 1. 0. 255. 253.
      254. 255. 255. 255. 255. 0. 0. 0. 2. 0. 1. 0. 1. 1. 1. 1. 1. 251.
      255. 255. 254. 254. 255. 251. 3. 0. 2. 0. 255. 255. 255. 255. 255.
      253. 253. 1. 2. 0. 0. 3. 0. 0. 0. 0. 0. 0. 0. 255. 253. 255. 255.
      255. 255. 253. 0. 6. 0. 0. 254. 255. 255. 255. 253. 255. 255. 255.
      0. 1. 1. 0. 0. 4. 1. 0. 1. 1. 0. 255. 255. 253. 255. 254. 251.
      255. 255. 255. 2. 0. 255. 254. 255. 254. 255. 255. 253. 255. 0. 1.
      0. 1. 2. 0. 0. 1. 0. 1. 0. 255. 255. 254. 255. 255. 255. 255. 255.
      254. 1. 0. 255. 255. 253. 254. 255. 253. 255. 251. 3. 1. 0. 1. 1.
      0. 0. 1. 1. 0. 0. 255. 255. 253. 255. 252. 255. 255. 255. 255. 0.
      2. 254. 255. 253. 255. 253. 255. 253. 2. 0. 1. 1. 0. 0. 0. 4. 0.
      0. 1. 254. 253. 255. 254. 255. 255. 252. 255. 254. 253. 1. 0. 254.
      253. 255. 255. 255. 255. 255. 0. 1. 3. 0. 0. 0. 3. 0. 2. 1. 0. 3.
      251. 255. 255. 254. 255. 255. 253. 255. 2. 1. 0. 255. 255. 255.
      253. 255. 253. 254. 3. 0. 0. 0. 3. 0. 0. 2. 0. 0. 2. 0. 255. 252.
      253. 255. 251. 255. 254. 0. 1. 0. 2. 252. 254. 255. 255. 254. 255.
      254. 0. 1. 2. 1. 2. 0. 0. 0. 1. 1. 0. 0. 255. 255. 255. 255. 254.
      255. 254. 0. 0. 255. 255. 255. 255. 254. 253. 255. 255. 255. 0. 1.
      0. 0. 0. 0. 1. 1. 0. 1. 0. 0. 255. 254. 255. 255. 255. 250. 255.
      255. 255. 0. 0. 255. 252. 255. 255. 253. 254. 252. 254. 0. 2. 0.
      3. 0. 0. 1. 0. 0. 4. 255. 252. 255. 252. 255. 252. 255. 255. 254.
      252. 0. 3. 254. 255. 254. 253. 255. 255. 255. 255. 0. 0. 2. 0. 0.
      0. 0. 2. 0. 0. 255. 255. 254. 255. 254. 255. 252. 254. 255. 255.
      1. 0. 255. 255. 253. 255. 255. 254. 252. 255. 2. 0. 1. 0. 0. 3. 0.
      0. 0. 1. 254. 254. 255. 254. 253. 255. 255. 254. 255. 255. 0. 0.
      254. 254. 255. 251. 255. 255. 255. 252. 0. 0. 0. 4. 0. 0. 0. 0. 1.
      0. 3. 254. 254. 255. 255. 255. 255. 255. 251. 255. 3. 1. 255. 255.
      255. 255. 253. 255. 252. 255. 1. 1. 0. 0. 1. 0. 0. 0. 2. 0. 1.
      254. 255. 255. 255. 252. 254. 255. 255. 255. 0. 252. 255. 252.
      255. 254. 255. 251. 255. 0. 0. 0. 0. 1. 1. 1. 0. 0. 2. 2. 0. 1.
      255. 251. 255. 255. 255. 255. 252. 255. 0. 2. 254. 254. 255. 255.
      255. 255. 255. 0. 0. 3. 0. 1. 0. 1. 0. 0. 0. 0. 0. 0. 252. 255.
      253. 255. 255. 252. 255. 255. 2. 0. 253. 255. 255. 254. 254. 254.
      254. 0. 2. 0. 0. 2. 0. 0. 0. 1. 0. 3. 255. 251. 255. 252. 255.
      255. 254. 253. 255. 255. 0. 0. 255. 255. 253. 255. 255. 255. 255.
      3. 0. 1. 1. 1. 0. 0. 0. 2. 0. 0. 255. 255. 254. 253. 254. 254.
      255. 255. 254. 253. 2. 0. 254. 254. 255. 255. 254. 253. 255. 0. 0.
      2. 1. 0. 2. 0. 1. 0. 2. 1. 253. 254. 255. 255. 255. 255. 254. 255.
      0. 0. 0. 1. 255. 255. 254. 255. 254. 255. 255. 253. 0. 0. 0. 0. 2.
      0. 0. 4. 0. 0. 255. 254. 255. 255. 255. 255. 255. 253. 2. 0. 0. 0.
      255. 252. 255. 255. 254. 255. 250. 255. 0. 0. 1. 3. 0. 2. 4. 0.
      254. 255. 255. 255. 255. 251. 255. 255. 255. 254. 3. 0. 4. 0. 255.
      255. 254. 254. 255. 254. 255. 254. 0. 0. 2. 0. 2. 0. 0. 255. 255.
      254. 255. 255. 255. 255. 255. 253. 255. 1. 0. 0. 0. 0. 255. 255.
      254. 255. 252. 255. 254. 255. 255. 255. 2. 0. 1. 255. 255. 253.
      255. 253. 255. 255. 253. 254. 254. 255. 0. 0. 4. 6. 0. 3. 253.
      252. 254. 255. 252. 255. 255. 253. 254. 254. 253. 0. 255. 253.
      254. 255. 254. 255. 254. 255. 255. 254. 255. 0. 0. 0. 0. 0. 1. 0.
      255. 255. 255. 255. 255. 253. 255. 254. 255. 255. 254. 255. 252.
      255. 255. 254. 255. 254. 255. 253. 255. 255. 0. 1. 0. 0. 3. 0. 0.
      3. 254. 253. 252. 255. 255. 255. 255. 255. 254. 251. 255. 255.
      255. 255. 255. 254. 255. 253. 255. 255. 252. 0. 2. 0. 1. 1. 0. 0.
      0. 0. 0. 255. 255. 255. 254. 255. 254. 255. 254. 255. 255. 255.
      254. 255. 254. 255. 255. 254. 255. 250. 3. 1. 0. 0. 1. 0. 0. 1. 0.
      2. 0. 4. 255. 253. 255. 255. 255. 251. 255. 254. 254. 252. 255.
      255. 255. 252. 255. 255. 253. 0. 2. 0. 0. 0. 0. 0. 0. 0. 0. 1. 0.
      0. 0. 255. 255. 254. 252. 255. 254. 255. 255. 255. 255. 252. 253.
      255. 255. 0. 1. 0. 0. 0. 0. 0. 0. 0. 0. 0. 0. 1. 1. 0. 0. 4. 0. 0.
      1. 254. 255. 254. 255. 253. 253. 255. 1. 0. 0. 4. 0. 0. 4. 0. 0.
      0. 0. 0. 0. 0. 1. 0. 0. 2. 3. 0. 2. 1. 0. 2. 0. 254. 255. 255.
      252. 0. 0. 0. 2. 0. 1. 1. 0. 0. 0. 0. 0. 0. 0. 0.</_>
    <_>
      0. 1. 0. 1. 0. 0. 4. 0. 0. 0. 2. 2. 0. 1. 0. 255. 255. 255. 254.
      253. 255. 255. 0. 0. 2. 0. 0. 0. 1. 2. 0. 0. 0. 0. 5. 0. 2. 0. 0.
      0. 0. 0. 2. 0. 255. 254. 253. 253. 255. 255. 255. 253. 1. 0. 0. 2.
      0. 2. 0. 0. 2. 0. 2. 1. 0. 2. 0. 0. 0. 255. 255. 255. 252. 255.
      254. 255. 255. 255. 252. 254. 255. 255. 255. 255. 0. 2. 0. 1. 0.
      0. 0. 3. 0. 0. 3. 0. 0. 1. 255. 255. 255. 254. 255. 255. 254. 255.
      253. 254. 255. 255. 253. 254. 252. 255. 254. 2. 2. 0. 3. 0. 0. 2.
      1. 0. 2. 3. 0. 255. 253. 255. 253. 250. 255. 253. 255. 253. 255.
      251. 255. 253. 255. 255. 255. 255. 255. 0. 0. 2. 1. 0. 2. 0. 1. 0.
      0. 0. 254. 254. 254. 253. 255. 255. 255. 253. 253. 255. 255. 255.
      255. 254. 255. 254. 253. 254. 0. 3. 0. 0. 0. 0. 2. 0. 1. 0. 255.
      255. 255. 255. 255. 255. 252. 254. 251. 255. 255. 252. 255. 251.
      255. 253. 255. 255. 253. 255. 255. 251. 0. 0. 2. 2. 0. 2. 0. 255.
      255. 254. 253. 255. 255. 253. 255. 255. 255. 255. 251. 255. 255.
      255. 253. 254. 255. 254. 255. 255. 255. 255. 255. 0. 0. 0. 1. 0.
      0. 255. 252. 254. 255. 255. 255. 255. 253. 255. 255. 252. 255.
      253. 255. 255. 254. 255. 255. 252. 255. 255. 255. 254. 255. 253.
      0. 3. 1. 0. 255. 252. 255. 255. 253. 255. 254. 255. 255. 255. 255.
      255. 0. 0. 0. 0. 255. 254. 255. 255. 252. 255. 255. 250. 255. 255.
      255. 0. 0. 0. 255. 255. 254. 253. 255. 255. 255. 255. 254. 255. 0.
      0. 3. 1. 0. 3. 0. 255. 254. 254. 251. 255. 255. 254. 255. 255. 2.
      0. 0. 0. 255. 255. 255. 255. 254. 251. 254. 254. 0. 3. 0. 0. 2. 0.
      0. 0. 1. 0. 255. 252. 255. 252. 253. 255. 255. 254. 0. 4. 2. 2.
      251. 255. 255. 252. 255. 255. 255. 252. 4. 0. 2. 1. 0. 0. 0. 0. 0.
      0. 255. 255. 255. 255. 254. 253. 255. 254. 4. 0. 253. 252. 255.
      255. 254. 254. 254. 254. 253. 255. 0. 0. 1. 0. 0. 1. 2. 0. 0. 2.
      255. 252. 255. 253. 255. 255. 255. 255. 0. 1. 254. 255. 255. 255.
      255. 255. 255. 255. 255. 255. 0. 0. 0. 1. 0. 2. 0. 0. 1. 0. 2.
      255. 255. 255. 254. 255. 255. 253. 0. 0. 255. 254. 255. 253. 255.
      255. 254. 255. 255. 255. 0. 1. 0. 0. 2. 0. 0. 0. 2. 0. 0. 254.
      255. 255. 254. 255. 255. 255. 0. 2. 252. 255. 253. 255. 255. 254.
      254. 255. 254. 255. 1. 1. 0. 0. 1. 2. 1. 0. 0. 0. 3. 255. 253.
      255. 255. 254. 255. 255. 0. 0. 255. 249. 255. 251. 255. 255. 254.
      255. 254. 255. 0. 2. 0. 1. 1. 0. 0. 4. 0. 0. 0. 255. 255. 255.
      255. 254. 250. 255. 2. 2. 253. 255. 255. 255. 255. 255. 251. 255.
      255. 0. 3. 0. 0. 0. 2. 0. 0. 1. 0. 3. 1. 252. 255. 255. 254. 254.
      255. 255. 0. 2. 0. 1. 253. 253. 255. 255. 254. 255. 254. 0. 0. 1.
      0. 0. 0. 1. 0. 0. 0. 2. 0. 2. 255. 254. 255. 255. 254. 253. 2. 1.
      2. 0. 255. 255. 255. 254. 255. 254. 255. 1. 0. 0. 0. 2. 0. 1. 2.
      0. 1. 0. 1. 0. 253. 255. 255. 251. 255. 255. 254. 0. 0. 0. 253.
      254. 255. 255. 254. 255. 255. 253. 1. 0. 0. 0. 0. 0. 0. 3. 0. 0.
      2. 4. 255. 255. 255. 255. 255. 253. 1. 0. 255. 255. 255. 255. 253.
      255. 254. 255. 252. 255. 1. 0. 2. 3. 0. 0. 0. 0. 1. 0. 0. 255.
      254. 255. 252. 255. 254. 255. 0. 3. 254. 254. 254. 255. 253. 255.
      255. 254. 255. 253. 0. 1. 0. 0. 0. 1. 1. 0. 0. 0. 0. 255. 253.
      255. 255. 254. 255. 255. 1. 0. 255. 254. 255. 255. 254. 255. 254.
      255. 255. 255. 0. 1. 0. 0. 0. 0. 0. 2. 0. 1. 0. 254. 255. 255.
      255. 253. 255. 255. 254. 255. 0. 255. 254. 252. 255. 253. 255.
      253. 255. 255. 0. 1. 0. 0. 0. 0. 0. 0. 1. 0. 0. 255. 255. 253.
      253. 255. 255. 255. 255. 255. 0. 2. 255. 255. 254. 255. 255. 254.
      255. 255. 0. 1. 0. 0. 0. 0. 1. 0. 1. 1. 0. 255. 255. 254. 255.
      255. 254. 255. 254. 255. 3. 0. 252. 255. 254. 255. 251. 255. 255.
      255. 0. 1. 0. 0. 0. 0. 0. 2. 0. 1. 0. 254. 253. 255. 253. 255.
      254. 255. 255. 255. 0. 0. 255. 251. 255. 254. 253. 255. 255. 255.
      0. 1. 0. 0. 0. 0. 0. 0. 2. 0. 2. 0. 255. 252. 255. 254. 255. 255.
      0. 0. 1. 3. 252. 255. 255. 255. 255. 254. 255. 255. 0. 1. 0. 0. 0.
      0. 0. 1. 0. 0. 1. 0. 254. 255. 255. 254. 253. 255. 0. 2. 3. 0.
      255. 254. 254. 255. 253. 255. 255. 255. 0. 1. 0. 0. 0. 0. 1. 1. 0.
      0. 1. 0. 255. 255. 255. 254. 255. 255. 255. 253. 0. 2. 255. 255.
      255. 254. 254. 255. 255. 255. 0. 1. 0. 0. 0. 0. 1. 0. 1. 0. 1. 0.
      255. 254. 255. 255. 254. 255. 253. 255. 0. 0. 255. 255. 252. 254.
      255. 255. 255. 255. 0. 1. 0. 0. 0. 0. 4. 0. 0. 0. 1. 255. 255.
      254. 255. 255. 255. 255. 255. 255. 2. 0. 254. 255. 255. 255. 255.
      252. 255. 255. 0. 1. 0. 0. 0. 0. 0. 4. 1. 2. 1. 254. 255. 255.
      255. 255. 255. 255. 255. 255. 254. 255. 255. 255. 253. 254. 255.
      255. 255. 255. 0. 1. 0. 0. 0. 0. 1. 2. 0. 0. 0. 1. 253. 254. 255.
      255. 255. 255. 255. 255. 255. 255. 254. 255. 255. 255. 254. 252.
      255. 255. 0. 1. 0. 0. 0. 0. 2. 0. 2. 1. 1. 0. 255. 255. 255. 255.
      255. 255. 255. 255. 0. 0. 255. 254. 253. 255. 253. 255. 255. 255.
      0. 1. 0. 0. 0. 0. 0. 2. 0. 0. 1. 1. 254. 253. 255. 255. 255. 255.
      255. 255. 1. 0. 255. 255. 255. 252. 255. 254. 255. 255. 0. 1. 0.
      0. 0. 0. 0. 0. 3. 0. 0. 255. 255. 253. 255. 255. 255. 255. 255.
      255. 0. 1. 254. 255. 254. 255. 249. 255. 255. 255. 0. 1. 0. 0. 0.
      0. 3. 0. 0. 0. 1. 0. 253. 255. 255. 255. 255. 255. 255. 255. 0. 3.
      253. 255. 255. 252. 255. 255. 255. 255. 0. 1. 0. 0. 0. 0. 1. 0. 0.
      1. 0. 0. 255. 255. 255. 255. 255. 255. 255. 255. 0. 0. 255. 254.
      255. 255. 255. 255. 255. 255. 0. 1. 0. 0. 0. 0. 0. 2. 0. 1. 1. 0.
      255. 254. 255. 255. 255. 255. 255. 255. 0. 0. 255. 254. 255. 255.
      255. 255. 255. 255. 0. 1. 0. 0. 0. 0. 1. 0. 0. 1. 0. 0. 254. 255.
      255. 255. 255. 255. 255. 255. 0. 0. 255. 254. 255. 255. 255. 255.
      255. 255. 0. 1. 0. 0. 0. 0. 0. 0. 1. 1. 0. 2. 255. 253. 255. 255.
      255. 255. 255. 255. 0. 0. 255. 254. 255. 255. 255. 255. 255. 255.
      0. 1. 0. 0. 0. 0. 0. 0. 1. 0. 2. 255. 254. 255. 255. 255. 255.
      255. 255. 255. 0. 0. 255. 254. 255. 255. 255. 255. 255. 255. 0. 1.
      0. 0. 0. 0. 0. 0. 1. 0. 2. 255. 254. 255. 255. 255. 255. 255. 255.
      255. 0. 0. 255. 254. 255. 255. 255. 255. 255. 255. 0. 1. 0. 0. 0.
      0. 0. 0. 1. 1. 0. 2. 255. 253. 255. 255. 255. 255. 255. 255. 0. 0.
      255. 254. 255. 255. 255. 255. 255. 255. 0. 1. 0. 0. 0. 0. 1. 0. 0.
      1. 0. 0. 254. 255. 255. 255. 255. 255. 255. 255. 0. 0. 255. 254.
      255. 255. 255. 255. 255. 255. 0. 1. 0. 0. 0. 0. 0. 2. 0. 1. 1. 0.
      255. 254. 255. 255. 255. 255. 255. 255. 0. 0. 255. 255. 253. 255.
      254. 255. 253. 254. 1. 0. 0. 3. 0. 0. 2. 0. 1. 0. 0. 0. 254. 255.
      252. 255. 255. 255. 255. 253. 0. 1. 251. 255. 255. 253. 255. 254.
      255. 255. 250. 0. 5. 0. 0. 0. 0. 1. 1. 0. 0. 3. 255. 254. 255.
      252. 254. 255. 252. 255. 1. 0. 255. 255. 252. 254. 255. 255. 252.
      254. 255. 253. 0. 2. 1. 1. 0. 0. 0. 0. 0. 254. 255. 255. 255. 255.
      255. 253. 255. 255. 0. 2. 252. 253. 255. 255. 253. 255. 255. 253.
      255. 255. 255. 2. 0. 0. 1. 0. 5. 253. 255. 255. 255. 252. 254.
      255. 251. 255. 1. 0. 2. 0. 255. 255. 254. 254. 255. 252. 254. 254.
      255. 251. 255. 253. 0. 3. 1. 255. 250. 255. 255. 254. 255. 255.
      254. 253. 255. 0. 1. 0. 0. 0. 255. 255. 255. 254. 255. 255. 255.
      253. 255. 255. 254. 255. 255. 254. 255. 254. 255. 255. 254. 251.
      255. 252. 255. 255. 0. 0. 1. 3. 0. 6. 0. 253. 252. 255. 254. 255.
      254. 255. 252. 255. 255. 255. 255. 255. 253. 255. 254. 255. 255.
      255. 252. 255. 255. 253. 0. 5. 0. 0. 0. 0. 0. 255. 255. 253. 255.
      255. 255. 255. 255. 255. 255. 253. 255. 254. 255. 251. 255. 255.
      252. 255. 255. 254. 255. 0. 0. 0. 1. 0. 0. 0. 0. 1. 255. 255. 255.
      253. 255. 255. 255. 255. 255. 255. 255. 255. 254. 255. 252. 254.
      255. 255. 254. 255. 255. 1. 0. 0. 2. 0. 0. 2. 1. 0. 2. 0. 255.
      255. 255. 255. 255. 255. 255. 255. 255. 255. 255. 255. 255. 254.
      255. 254. 255. 0. 1. 1. 0. 0. 0. 1. 0. 0. 3. 2. 0. 1. 0. 0. 255.
      255. 255. 255. 255. 255. 255. 255. 255. 255. 255. 255. 255. 0. 1.
      0. 0. 0. 0. 4. 0. 0. 0. 2. 0. 0. 3. 0. 1. 0. 255. 255. 255. 255.
      255. 255. 255. 255. 255. 254. 253. 255. 0. 0. 1. 3. 1. 1. 2. 0. 1.
      0.</_>
    <_>
      0. 0. 1. 0. 0. 0. 3. 0. 0. 0. 1. 0. 255. 254. 255. 252. 255. 252.
      255. 255. 255. 0. 3. 0. 2. 0. 3. 0. 0. 2. 0. 4. 0. 4. 0. 0. 1. 0.
      0. 0. 1. 255. 255. 255. 252. 255. 253. 255. 254. 255. 253. 255.
      253. 1. 2. 0. 3. 1. 1. 0. 2. 0. 1. 0. 4. 0. 0. 0. 1. 3. 248. 255.
      255. 255. 253. 255. 255. 252. 253. 255. 255. 255. 255. 254. 254.
      253. 0. 0. 2. 2. 0. 4. 1. 0. 1. 0. 0. 3. 0. 0. 255. 255. 255. 255.
      255. 253. 255. 254. 255. 254. 255. 251. 254. 255. 255. 255. 255.
      0. 0. 0. 0. 1. 0. 0. 1. 0. 2. 0. 255. 252. 255. 254. 254. 255.
      255. 255. 254. 253. 255. 253. 255. 255. 255. 255. 255. 253. 254.
      255. 1. 3. 3. 0. 0. 1. 0. 0. 0. 255. 252. 255. 253. 255. 255. 253.
      255. 254. 255. 255. 253. 255. 254. 254. 254. 254. 255. 253. 255.
      254. 1. 0. 0. 0. 2. 0. 1. 3. 1. 254. 255. 255. 255. 253. 255. 255.
      255. 255. 254. 255. 255. 255. 255. 254. 255. 255. 253. 255. 253.
      255. 0. 3. 0. 2. 0. 0. 0. 0. 0. 255. 253. 255. 255. 255. 255. 255.
      255. 255. 254. 255. 251. 255. 255. 255. 255. 255. 255. 255. 255.
      252. 2. 0. 0. 5. 0. 0. 0. 1. 0. 255. 255. 255. 254. 255. 254. 254.
      254. 255. 254. 254. 254. 254. 255. 255. 251. 255. 255. 255. 254.
      255. 0. 0. 5. 0. 0. 2. 2. 2. 0. 254. 254. 253. 255. 255. 255. 255.
      255. 255. 0. 3. 2. 0. 255. 252. 255. 253. 254. 254. 255. 255. 254.
      253. 0. 0. 2. 0. 0. 0. 255. 254. 255. 253. 254. 255. 253. 254.
      253. 255. 2. 0. 0. 0. 0. 254. 255. 255. 255. 255. 254. 253. 255.
      255. 1. 0. 0. 0. 0. 255. 254. 255. 255. 255. 253. 255. 255. 255.
      255. 0. 0. 0. 1. 2. 0. 0. 255. 253. 253. 255. 255. 252. 255. 255.
      0. 0. 3. 0. 0. 252. 255. 253. 252. 255. 255. 253. 254. 255. 251.
      3. 2. 0. 2. 0. 5. 0. 255. 255. 255. 255. 255. 255. 252. 255. 1. 0.
      0. 0. 3. 254. 255. 255. 255. 250. 255. 251. 255. 255. 254. 0. 0.
      2. 0. 1. 0. 0. 254. 255. 255. 252. 254. 255. 255. 255. 0. 1. 2. 1.
      0. 255. 254. 255. 254. 255. 253. 255. 253. 254. 255. 0. 2. 0. 1.
      1. 0. 2. 255. 253. 255. 255. 255. 255. 251. 255. 0. 2. 0. 0. 0.
      254. 255. 255. 254. 255. 255. 254. 254. 255. 255. 0. 0. 2. 0. 0.
      0. 0. 255. 255. 253. 255. 255. 254. 255. 255. 0. 0. 1. 0. 0. 255.
      255. 255. 255. 255. 255. 253. 253. 255. 0. 1. 0. 1. 0. 1. 0. 0.
      254. 255. 255. 255. 255. 255. 255. 255. 0. 0. 1. 0. 0. 255. 255.
      255. 255. 254. 255. 255. 255. 1. 0. 0. 0. 1. 0. 0. 3. 0. 255. 255.
      255. 255. 255. 255. 255. 255. 0. 0. 1. 0. 0. 255. 255. 255. 255.
      252. 254. 254. 252. 0. 0. 0. 1. 0. 1. 1. 0. 0. 255. 251. 255. 255.
      255. 255. 255. 255. 0. 0. 1. 0. 0. 255. 255. 255. 254. 255. 254.
      255. 255. 2. 0. 1. 0. 3. 0. 1. 0. 0. 255. 255. 255. 255. 255. 255.
      255. 255. 0. 0. 1. 0. 0. 255. 255. 255. 252. 255. 255. 255. 251.
      0. 3. 1. 0. 3. 0. 1. 3. 2. 252. 255. 255. 255. 255. 255. 255. 255.
      0. 0. 1. 0. 0. 255. 255. 255. 255. 253. 255. 255. 255. 0. 1. 0. 2.
      0. 0. 0. 0. 0. 255. 254. 255. 255. 255. 255. 255. 255. 0. 0. 1. 0.
      0. 255. 255. 255. 255. 255. 255. 254. 255. 0. 0. 3. 0. 0. 0. 3. 2.
      1. 252. 255. 255. 255. 255. 255. 255. 255. 0. 0. 1. 0. 0. 255.
      255. 255. 255. 255. 254. 255. 255. 0. 0. 0. 0. 1. 0. 0. 0. 255.
      255. 255. 255. 255. 255. 255. 255. 255. 0. 1. 0. 2. 255. 252. 255.
      255. 255. 254. 255. 252. 255. 0. 0. 0. 0. 0. 0. 0. 255. 255. 255.
      255. 255. 255. 254. 255. 254. 255. 1. 2. 1. 0. 255. 255. 255. 254.
      255. 255. 253. 255. 255. 0. 0. 1. 0. 0. 0. 0. 255. 255. 255. 255.
      253. 255. 255. 253. 255. 253. 0. 0. 0. 253. 253. 255. 255. 253.
      251. 255. 255. 253. 255. 0. 2. 0. 0. 0. 0. 0. 255. 255. 255. 255.
      255. 255. 255. 255. 0. 0. 0. 0. 0. 255. 253. 255. 255. 255. 255.
      253. 254. 255. 255. 0. 0. 0. 0. 0. 0. 0. 255. 255. 255. 255. 254.
      253. 255. 255. 0. 0. 0. 3. 0. 254. 255. 255. 253. 253. 253. 255.
      254. 255. 0. 0. 2. 0. 0. 0. 0. 0. 255. 255. 255. 255. 255. 255.
      255. 253. 3. 0. 1. 0. 255. 255. 255. 252. 255. 255. 255. 255. 255.
      252. 3. 1. 0. 0. 0. 0. 0. 0. 255. 255. 255. 255. 255. 254. 253.
      255. 0. 1. 0. 4. 252. 255. 253. 255. 255. 251. 255. 252. 255. 3.
      0. 0. 0. 0. 0. 0. 0. 0. 255. 255. 255. 255. 255. 255. 255. 255. 0.
      1. 0. 0. 255. 255. 255. 255. 251. 255. 255. 255. 255. 0. 1. 1. 1.
      0. 0. 0. 0. 0. 255. 255. 255. 255. 255. 253. 255. 255. 0. 0. 1. 0.
      255. 255. 253. 255. 254. 255. 255. 253. 255. 255. 0. 1. 1. 0. 0.
      0. 0. 0. 255. 255. 255. 255. 255. 252. 255. 255. 1. 1. 1. 4. 255.
      253. 255. 251. 255. 255. 254. 255. 252. 253. 2. 3. 0. 4. 0. 0. 0.
      0. 255. 255. 255. 255. 254. 255. 255. 253. 0. 0. 0. 0. 254. 255.
      255. 255. 255. 255. 255. 254. 255. 255. 0. 0. 0. 0. 0. 0. 0. 0.
      255. 255. 255. 255. 254. 255. 255. 255. 0. 0. 3. 2. 255. 253. 255.
      255. 254. 255. 255. 253. 255. 0. 0. 0. 2. 1. 0. 0. 0. 0. 255. 255.
      255. 255. 255. 255. 255. 0. 3. 0. 0. 0. 255. 254. 254. 255. 254.
      255. 255. 255. 0. 2. 3. 2. 1. 0. 0. 0. 0. 0. 255. 255. 255. 255.
      255. 252. 254. 0. 0. 0. 2. 0. 254. 255. 255. 255. 255. 254. 254.
      255. 0. 1. 1. 0. 3. 1. 0. 0. 0. 0. 255. 255. 255. 255. 253. 255.
      255. 0. 1. 0. 0. 0. 255. 255. 250. 254. 255. 253. 255. 255. 0. 2.
      0. 5. 0. 0. 0. 0. 0. 0. 255. 255. 255. 255. 255. 255. 0. 2. 0. 0.
      255. 255. 252. 253. 255. 254. 255. 255. 254. 255. 1. 1. 0. 0. 0.
      0. 0. 0. 0. 0. 255. 255. 255. 255. 255. 0. 1. 0. 0. 0. 255. 255.
      255. 255. 255. 255. 255. 255. 255. 255. 0. 2. 0. 0. 3. 0. 0. 1. 0.
      255. 255. 255. 253. 255. 255. 0. 0. 1. 0. 0. 255. 255. 255. 255.
      255. 255. 255. 255. 253. 255. 3. 0. 1. 0. 0. 0. 1. 0. 255. 252.
      253. 255. 255. 255. 255. 0. 0. 1. 0. 1. 255. 255. 255. 255. 255.
      255. 255. 255. 255. 254. 0. 0. 0. 0. 1. 0. 1. 0. 251. 255. 254.
      254. 255. 252. 253. 1. 0. 3. 1. 0. 255. 255. 255. 255. 255. 255.
      255. 255. 255. 0. 3. 0. 4. 0. 0. 3. 0. 3. 254. 255. 255. 255. 253.
      255. 255. 3. 2. 0. 0. 0. 255. 255. 255. 255. 255. 255. 255. 255.
      0. 1. 0. 0. 0. 2. 0. 0. 3. 255. 253. 251. 255. 255. 253. 255. 255.
      0. 0. 1. 0. 0. 255. 255. 255. 255. 255. 255. 255. 255. 0. 0. 2. 0.
      1. 1. 0. 1. 0. 255. 255. 255. 255. 255. 255. 255. 255. 1. 3. 0. 3.
      1. 255. 255. 255. 255. 255. 255. 255. 255. 3. 0. 0. 2. 0. 0. 3. 0.
      0. 253. 254. 254. 255. 252. 255. 255. 254. 0. 0. 3. 0. 0. 255.
      255. 255. 255. 255. 255. 255. 255. 254. 1. 0. 0. 3. 2. 0. 2. 0.
      255. 255. 255. 254. 255. 255. 0. 0. 1. 0. 1. 0. 0. 254. 255. 255.
      255. 255. 255. 255. 254. 254. 255. 0. 2. 0. 0. 4. 0. 2. 252. 255.
      255. 255. 254. 255. 0. 0. 0. 0. 0. 0. 0. 1. 253. 255. 253. 253.
      255. 253. 255. 255. 255. 0. 0. 1. 0. 0. 0. 0. 255. 255. 255. 255.
      253. 254. 0. 0. 0. 0. 0. 0. 0. 1. 0. 252. 255. 253. 255. 255. 250.
      255. 253. 0. 0. 1. 1. 0. 0. 255. 252. 255. 255. 249. 255. 255. 0.
      0. 0. 0. 0. 0. 0. 1. 2. 255. 253. 255. 254. 253. 255. 255. 252.
      255. 254. 255. 254. 255. 255. 254. 255. 255. 253. 255. 255. 254.
      0. 0. 0. 0. 0. 0. 0. 0. 0. 255. 253. 255. 255. 255. 251. 255. 255.
      254. 255. 255. 253. 255. 254. 255. 254. 255. 255. 255. 254. 255.
      5. 0. 0. 0. 0. 0. 0. 0. 2. 0. 255. 255. 253. 255. 255. 254. 255.
      254. 253. 255. 255. 252. 255. 253. 255. 255. 253. 255. 255. 254.
      0. 0. 0. 0. 0. 0. 0. 0. 1. 1. 0. 1. 255. 254. 255. 255. 253. 255.
      255. 253. 253. 255. 255. 254. 254. 255. 255. 255. 255. 255. 2. 0.
      0. 0. 0. 0. 0. 2. 0. 1. 1. 0. 255. 254. 255. 255. 255. 253. 255.
      254. 255. 255. 254. 255. 255. 253. 255. 255. 254. 1. 0. 0. 0. 0.
      0. 0. 0. 1. 0. 0. 2. 0. 0. 1. 255. 254. 253. 255. 255. 254. 255.
      255. 254. 254. 255. 255. 255. 2. 1. 0. 3. 0. 0. 0. 0. 0. 0. 0. 3.
      1. 0. 0. 0. 1. 1. 255. 253. 253. 255. 253. 252. 255. 255. 255.
      255. 253. 254. 0. 0. 4. 0. 0. 0. 0. 0. 0. 0. 0. 2. 0. 0. 4. 0. 0.
      0. 0. 2. 0. 254. 255. 255. 253. 254. 255. 253. 255. 3. 0. 0. 3. 3.
      0. 0. 0. 0. 0. 0. 0. 0. 0. 1. 0. 2. 1. 1. 1. 0. 2. 0. 254. 255.
      254. 255. 254. 255. 0. 0. 0. 1. 0. 0. 0. 0. 0. 0. 0. 0.</_>
    <_>
      0. 3. 0. 0. 2. 0. 0. 2. 0. 0. 2. 0. 255. 251. 255. 253. 255. 252.
      255. 255. 255. 254. 255. 254. 255. 255. 0. 2. 0. 0. 1. 0. 0. 1. 0.
      0. 3. 0. 1. 2. 1. 255. 255. 255. 252. 255. 255. 253. 255. 255.
      252. 255. 250. 255. 255. 255. 2. 0. 0. 3. 0. 2. 0. 2. 0. 0. 4. 2.
      255. 253. 253. 255. 255. 255. 253. 255. 253. 254. 254. 255. 255.
      254. 255. 253. 255. 251. 255. 2. 1. 0. 0. 0. 0. 0. 0. 1. 0. 252.
      253. 255. 255. 254. 255. 255. 255. 253. 255. 255. 255. 253. 255.
      255. 255. 253. 255. 255. 254. 251. 0. 4. 2. 0. 1. 3. 0. 0. 254.
      255. 255. 252. 255. 254. 255. 255. 254. 255. 254. 254. 253. 255.
      254. 255. 255. 255. 255. 255. 253. 255. 1. 0. 1. 1. 0. 1. 0. 255.
      255. 254. 255. 255. 254. 255. 254. 255. 255. 254. 255. 255. 255.
      251. 255. 255. 253. 255. 255. 254. 255. 254. 1. 0. 0. 0. 1. 251.
      255. 254. 255. 255. 253. 255. 255. 255. 255. 254. 255. 254. 254.
      254. 255. 255. 255. 254. 252. 255. 255. 255. 255. 255. 252. 255.
      0. 0. 254. 255. 255. 255. 254. 254. 255. 255. 255. 254. 255. 254.
      2. 0. 0. 254. 255. 255. 253. 255. 255. 254. 254. 255. 254. 254.
      255. 254. 2. 0. 255. 254. 255. 254. 255. 255. 255. 253. 255. 253.
      255. 1. 0. 0. 0. 3. 255. 254. 255. 254. 255. 254. 255. 254. 255.
      253. 255. 0. 0. 0. 254. 255. 255. 255. 253. 255. 255. 254. 255. 0.
      1. 0. 2. 2. 0. 0. 0. 255. 255. 252. 255. 253. 254. 255. 255. 255.
      0. 0. 2. 0. 255. 255. 255. 255. 255. 253. 255. 255. 0. 0. 2. 0. 0.
      0. 0. 1. 0. 3. 254. 255. 252. 255. 255. 255. 252. 252. 2. 0. 1. 0.
      255. 253. 254. 255. 255. 255. 254. 255. 0. 0. 0. 0. 0. 2. 1. 0. 1.
      0. 254. 255. 255. 250. 255. 254. 255. 255. 0. 2. 255. 255. 255.
      255. 255. 255. 255. 254. 255. 1. 1. 0. 1. 0. 0. 0. 1. 0. 0. 1.
      254. 254. 255. 255. 254. 255. 254. 253. 0. 1. 253. 255. 254. 252.
      255. 255. 253. 255. 253. 3. 0. 0. 2. 0. 0. 2. 0. 0. 1. 4. 253.
      254. 255. 255. 255. 253. 255. 255. 255. 255. 255. 255. 255. 255.
      255. 254. 255. 254. 254. 0. 1. 2. 0. 0. 5. 0. 0. 2. 0. 0. 255.
      255. 253. 255. 255. 251. 255. 255. 250. 1. 254. 255. 254. 255.
      255. 255. 254. 255. 255. 0. 1. 0. 1. 1. 0. 1. 0. 0. 0. 0. 255.
      255. 255. 255. 254. 255. 254. 255. 3. 0. 252. 255. 253. 255. 255.
      254. 254. 255. 255. 1. 0. 0. 2. 2. 0. 2. 0. 0. 0. 0. 255. 255.
      255. 255. 253. 255. 255. 254. 0. 2. 255. 249. 255. 251. 255. 255.
      254. 255. 0. 1. 4. 1. 1. 0. 0. 1. 0. 0. 0. 0. 255. 255. 255. 255.
      255. 255. 255. 255. 3. 0. 253. 255. 255. 255. 255. 255. 251. 255.
      3. 0. 0. 0. 0. 0. 4. 0. 0. 0. 0. 0. 255. 255. 255. 255. 255. 253.
      255. 254. 254. 0. 0. 1. 253. 253. 255. 255. 254. 255. 0. 0. 3. 0.
      0. 5. 0. 0. 0. 0. 0. 0. 255. 255. 255. 255. 255. 254. 255. 254. 0.
      4. 2. 0. 255. 255. 255. 254. 255. 254. 254. 2. 0. 2. 1. 0. 0. 3.
      0. 0. 0. 0. 255. 255. 255. 255. 255. 255. 255. 255. 0. 1. 0. 0.
      253. 254. 255. 255. 254. 255. 255. 1. 0. 1. 1. 1. 0. 0. 0. 0. 0.
      0. 255. 255. 255. 255. 255. 253. 255. 255. 2. 0. 255. 255. 255.
      255. 253. 255. 254. 255. 255. 254. 0. 0. 0. 0. 1. 3. 0. 0. 0. 0.
      255. 255. 255. 255. 255. 253. 255. 255. 0. 0. 254. 254. 254. 255.
      253. 255. 255. 254. 255. 2. 0. 0. 1. 0. 1. 0. 0. 0. 0. 0. 255.
      255. 255. 255. 254. 255. 253. 255. 3. 0. 255. 255. 254. 254. 255.
      255. 254. 254. 255. 0. 0. 0. 0. 0. 0. 0. 1. 0. 1. 0. 0. 251. 255.
      254. 255. 255. 255. 255. 255. 255. 255. 254. 255. 255. 253. 255.
      255. 255. 255. 0. 0. 0. 0. 0. 0. 0. 0. 1. 0. 0. 2. 255. 249. 255.
      255. 255. 255. 255. 255. 255. 0. 0. 253. 255. 255. 255. 253. 253.
      255. 0. 0. 0. 0. 0. 0. 0. 0. 1. 4. 0. 0. 255. 255. 255. 255. 255.
      255. 255. 255. 255. 0. 3. 255. 255. 253. 253. 255. 255. 255. 0. 0.
      0. 0. 0. 0. 0. 0. 0. 0. 0. 255. 253. 255. 255. 255. 255. 255. 255.
      255. 255. 0. 0. 252. 254. 255. 253. 255. 255. 255. 0. 0. 0. 0. 0.
      0. 0. 3. 0. 1. 1. 254. 253. 255. 254. 255. 255. 255. 255. 255.
      255. 1. 2. 255. 255. 255. 255. 253. 254. 255. 0. 0. 0. 0. 0. 0. 0.
      0. 0. 4. 0. 255. 255. 255. 255. 255. 255. 255. 255. 255. 255. 0.
      2. 253. 255. 255. 252. 255. 255. 255. 0. 0. 0. 0. 0. 0. 0. 0. 2.
      0. 0. 255. 253. 255. 253. 255. 255. 255. 255. 255. 255. 0. 0. 255.
      255. 254. 255. 253. 255. 255. 0. 0. 0. 0. 0. 0. 0. 1. 0. 0. 1.
      255. 253. 255. 255. 255. 255. 255. 255. 255. 255. 0. 0. 0. 255.
      255. 253. 255. 255. 252. 255. 2. 0. 1. 0. 0. 3. 0. 0. 1. 0. 0.
      255. 255. 255. 255. 255. 255. 255. 255. 255. 0. 1. 1. 253. 254.
      255. 252. 255. 255. 252. 0. 0. 0. 4. 0. 0. 0. 0. 1. 0. 0. 255.
      255. 255. 255. 255. 255. 255. 255. 255. 1. 0. 255. 255. 254. 255.
      255. 250. 252. 255. 1. 1. 0. 0. 1. 0. 0. 0. 1. 0. 0. 255. 255.
      255. 255. 255. 255. 255. 255. 255. 0. 0. 252. 255. 253. 255. 254.
      255. 255. 0. 0. 0. 0. 1. 1. 1. 0. 0. 1. 0. 0. 255. 255. 255. 255.
      255. 255. 255. 255. 255. 3. 0. 255. 255. 255. 254. 253. 255. 255.
      0. 0. 3. 0. 1. 0. 1. 0. 0. 1. 0. 0. 255. 255. 255. 255. 255. 255.
      255. 255. 255. 0. 255. 255. 252. 255. 255. 255. 254. 254. 0. 2. 0.
      0. 2. 0. 0. 0. 0. 1. 0. 0. 255. 255. 255. 255. 255. 255. 255. 255.
      255. 1. 1. 254. 255. 255. 255. 254. 253. 255. 3. 0. 1. 1. 1. 0. 0.
      0. 0. 1. 0. 0. 255. 255. 255. 255. 255. 255. 255. 255. 255. 0. 0.
      255. 254. 255. 254. 255. 255. 255. 0. 0. 2. 1. 0. 2. 0. 0. 0. 1.
      0. 0. 255. 255. 255. 255. 255. 255. 255. 255. 255. 0. 0. 255. 254.
      255. 255. 255. 255. 255. 0. 0. 0. 0. 0. 0. 0. 1. 0. 0. 0. 254.
      254. 255. 255. 255. 255. 255. 255. 255. 255. 0. 0. 255. 254. 255.
      255. 255. 255. 255. 0. 0. 0. 0. 0. 0. 0. 0. 0. 2. 0. 255. 255.
      255. 255. 255. 255. 255. 255. 255. 255. 0. 0. 255. 254. 255. 255.
      255. 255. 255. 0. 0. 0. 0. 0. 0. 0. 0. 0. 0. 0. 254. 255. 252.
      255. 255. 255. 255. 255. 255. 255. 0. 0. 255. 254. 255. 255. 255.
      255. 255. 0. 0. 0. 0. 0. 0. 0. 3. 1. 0. 2. 254. 254. 255. 255.
      255. 255. 255. 255. 255. 255. 0. 0. 255. 254. 255. 255. 255. 255.
      255. 0. 0. 0. 0. 0. 0. 0. 0. 0. 2. 0. 2. 250. 255. 253. 255. 255.
      255. 255. 255. 255. 0. 0. 255. 254. 255. 255. 255. 255. 255. 0. 0.
      0. 0. 0. 0. 0. 0. 5. 0. 0. 4. 255. 254. 254. 255. 255. 255. 255.
      255. 255. 0. 0. 255. 254. 255. 255. 255. 255. 255. 0. 0. 0. 0. 0.
      0. 0. 0. 0. 6. 0. 0. 254. 255. 255. 255. 255. 255. 255. 255. 255.
      0. 0. 255. 254. 255. 255. 255. 255. 255. 0. 0. 0. 0. 0. 0. 0. 1.
      0. 0. 0. 255. 252. 255. 254. 255. 255. 255. 255. 255. 255. 2. 0.
      255. 255. 253. 255. 255. 255. 255. 255. 0. 0. 1. 3. 0. 0. 1. 1. 0.
      3. 255. 253. 255. 254. 255. 252. 255. 255. 255. 255. 0. 4. 255.
      254. 255. 252. 255. 254. 255. 255. 254. 1. 0. 0. 2. 0. 0. 0. 255.
      251. 255. 255. 251. 254. 254. 255. 255. 254. 253. 254. 1. 0. 253.
      255. 251. 254. 255. 255. 252. 255. 252. 255. 255. 1. 0. 0. 2. 255.
      254. 255. 253. 254. 255. 255. 250. 255. 251. 255. 255. 255. 1. 0.
      4. 252. 255. 255. 255. 251. 255. 252. 255. 253. 255. 255. 255.
      255. 253. 255. 255. 255. 255. 254. 255. 254. 255. 254. 255. 0. 0.
      0. 0. 1. 0. 255. 254. 253. 254. 255. 253. 255. 255. 255. 255. 254.
      251. 255. 255. 253. 254. 255. 255. 255. 254. 255. 253. 0. 0. 1. 3.
      0. 0. 0. 0. 255. 255. 255. 251. 255. 254. 255. 254. 253. 255. 255.
      255. 254. 254. 255. 255. 255. 255. 253. 255. 254. 255. 2. 0. 0. 0.
      2. 0. 2. 3. 255. 254. 253. 255. 254. 255. 251. 254. 255. 253. 255.
      253. 255. 255. 255. 255. 255. 252. 254. 255. 254. 255. 0. 3. 0. 0.
      1. 2. 0. 0. 0. 254. 255. 255. 255. 255. 255. 255. 255. 253. 255.
      255. 254. 253. 255. 254. 255. 255. 254. 255. 254. 0. 1. 0. 1. 0.
      1. 0. 4. 0. 0. 1. 254. 255. 255. 255. 255. 252. 255. 255. 253.
      255. 255. 255. 255. 255. 255. 0. 0. 4. 0. 0. 0. 0. 0. 0. 0. 2. 0.
      2. 3. 0. 2. 250. 255. 255. 253. 255. 252. 253. 255. 255. 252. 255.
      254. 254. 255. 1. 1. 0. 1. 0. 0. 0. 0. 0. 0. 2. 3. 0. 0. 2. 0. 1.
      1. 0. 255. 255. 255. 255. 254. 255. 255. 254. 1. 0. 1. 0. 0. 1. 0.
      0. 0. 0. 0. 0. 0. 0. 0. 1. 0. 0. 1. 0. 2. 1. 0. 253. 254. 254.
      255. 255. 254. 1. 2. 0. 0. 3. 0. 2. 0. 0. 0. 0. 0. 0. 0.</_>
    <_>
      1. 0. 0. 1. 1. 0. 0. 0. 0. 0. 1. 0. 255. 254. 255. 255. 255. 252.
      255. 255. 255. 0. 1. 0. 0. 0. 3. 0. 0. 2. 0. 3. 0. 0. 0. 0. 0. 1.
      1. 1. 0. 255. 255. 255. 254. 255. 253. 255. 255. 254. 255. 255.
      254. 254. 0. 0. 0. 3. 0. 1. 0. 1. 0. 1. 0. 0. 5. 0. 0. 255. 253.
      255. 255. 255. 254. 255. 255. 251. 255. 254. 255. 255. 255. 254.
      255. 254. 1. 0. 3. 0. 1. 0. 0. 0. 0. 0. 0. 1. 255. 254. 255. 255.
      253. 255. 255. 255. 252. 255. 255. 253. 255. 254. 253. 255. 253.
      255. 253. 1. 0. 0. 0. 0. 0. 2. 4. 0. 255. 253. 251. 255. 255. 255.
      255. 252. 255. 254. 255. 252. 253. 254. 255. 253. 255. 255. 255.
      255. 254. 255. 0. 1. 1. 0. 0. 0. 0. 255. 254. 253. 255. 250. 255.
      254. 255. 255. 255. 255. 255. 255. 254. 255. 255. 254. 255. 253.
      255. 252. 255. 255. 253. 255. 0. 2. 0. 2. 2. 254. 255. 255. 253.
      255. 255. 255. 251. 255. 254. 255. 255. 253. 255. 248. 255. 255.
      253. 255. 254. 254. 255. 255. 0. 0. 3. 0. 1. 0. 0. 255. 255. 252.
      255. 255. 254. 255. 255. 252. 255. 255. 255. 255. 255. 254. 255.
      254. 255. 255. 254. 255. 255. 252. 2. 1. 0. 0. 0. 255. 253. 255.
      254. 255. 255. 253. 255. 255. 255. 255. 255. 254. 255. 253. 255.
      253. 255. 253. 255. 255. 254. 255. 254. 255. 0. 3. 0. 5. 251. 252.
      255. 255. 253. 255. 255. 255. 254. 253. 254. 255. 250. 2. 0. 255.
      255. 255. 252. 253. 255. 255. 253. 255. 255. 252. 255. 252. 2. 0.
      255. 255. 255. 252. 255. 254. 253. 253. 255. 255. 255. 255. 3. 0.
      0. 0. 255. 255. 252. 255. 255. 252. 255. 252. 255. 254. 0. 0. 0.
      0. 255. 253. 253. 255. 255. 254. 255. 255. 253. 255. 0. 0. 0. 0.
      2. 0. 0. 1. 255. 254. 255. 255. 253. 254. 255. 255. 2. 0. 4. 0.
      255. 255. 253. 254. 253. 255. 254. 255. 255. 0. 2. 0. 3. 0. 0. 5.
      0. 3. 255. 253. 255. 252. 254. 255. 253. 251. 0. 3. 254. 253. 255.
      253. 255. 254. 255. 252. 255. 252. 1. 2. 0. 2. 0. 1. 0. 0. 0. 0.
      254. 255. 254. 255. 255. 255. 252. 255. 0. 0. 255. 255. 255. 254.
      253. 255. 254. 255. 253. 255. 0. 0. 0. 0. 0. 0. 1. 2. 0. 1. 255.
      254. 255. 255. 255. 252. 255. 255. 255. 0. 0. 254. 255. 255. 255.
      253. 255. 255. 254. 255. 0. 1. 0. 1. 1. 0. 0. 0. 0. 2. 253. 255.
      254. 255. 254. 254. 255. 254. 252. 255. 1. 254. 255. 255. 255.
      253. 255. 250. 255. 255. 0. 1. 0. 0. 0. 0. 1. 0. 1. 0. 0. 251.
      255. 254. 255. 254. 255. 253. 255. 255. 254. 253. 255. 253. 255.
      253. 253. 255. 255. 255. 0. 1. 0. 0. 0. 0. 0. 1. 0. 0. 2. 255.
      249. 255. 255. 255. 255. 255. 254. 253. 255. 255. 255. 255. 254.
      253. 255. 254. 255. 255. 0. 1. 0. 0. 0. 0. 0. 1. 4. 0. 0. 255.
      255. 255. 255. 253. 254. 251. 255. 255. 254. 254. 253. 255. 255.
      255. 255. 254. 255. 255. 0. 1. 0. 0. 0. 0. 0. 0. 0. 0. 255. 253.
      255. 255. 255. 255. 255. 255. 252. 255. 255. 255. 255. 249. 254.
      255. 253. 255. 255. 255. 0. 1. 0. 0. 0. 0. 3. 0. 1. 1. 254. 253.
      255. 254. 255. 254. 255. 253. 255. 254. 0. 1. 255. 255. 253. 255.
      255. 255. 255. 255. 0. 1. 0. 0. 0. 0. 0. 0. 4. 0. 255. 255. 255.
      255. 254. 255. 255. 253. 2. 0. 1. 0. 255. 253. 255. 252. 255. 255.
      255. 255. 0. 1. 0. 0. 0. 0. 0. 2. 0. 0. 255. 253. 255. 253. 254.
      255. 255. 255. 0. 0. 0. 1. 255. 255. 255. 255. 253. 255. 255. 255.
      0. 1. 0. 0. 0. 0. 1. 0. 0. 1. 255. 253. 255. 255. 255. 254. 255.
      255. 0. 0. 0. 0. 255. 255. 253. 254. 255. 255. 255. 254. 0. 0. 1.
      0. 1. 0. 0. 0. 0. 0. 255. 255. 255. 255. 255. 255. 255. 255. 255.
      255. 0. 1. 253. 255. 255. 255. 253. 253. 255. 255. 0. 3. 0. 0. 1.
      0. 0. 0. 0. 0. 255. 255. 255. 255. 255. 255. 255. 255. 255. 255.
      255. 255. 255. 255. 254. 252. 255. 255. 251. 255. 0. 0. 1. 1. 0.
      1. 0. 0. 0. 0. 255. 255. 255. 255. 255. 255. 255. 255. 255. 255.
      255. 252. 254. 253. 255. 255. 254. 253. 255. 255. 0. 0. 1. 0. 3.
      0. 0. 0. 0. 0. 255. 255. 255. 255. 255. 255. 255. 255. 255. 255.
      255. 255. 255. 255. 253. 255. 251. 255. 255. 252. 2. 3. 1. 0. 3.
      0. 0. 0. 0. 0. 255. 255. 255. 255. 255. 255. 255. 255. 255. 255.
      254. 253. 254. 255. 254. 255. 255. 255. 254. 255. 0. 0. 0. 0. 0.
      2. 0. 0. 0. 0. 255. 255. 255. 255. 255. 255. 255. 255. 255. 255.
      255. 253. 255. 255. 253. 255. 251. 255. 255. 252. 1. 2. 3. 0. 0.
      0. 0. 0. 0. 0. 255. 255. 255. 255. 255. 255. 255. 255. 255. 255.
      255. 255. 254. 255. 254. 253. 255. 255. 255. 255. 255. 0. 0. 0. 1.
      0. 0. 0. 0. 0. 255. 255. 255. 255. 255. 255. 255. 255. 255. 255.
      255. 255. 255. 255. 255. 255. 255. 255. 255. 255. 0. 1. 0. 0. 0.
      0. 0. 1. 1. 0. 255. 254. 254. 255. 255. 255. 255. 255. 255. 255.
      255. 255. 255. 255. 255. 255. 255. 255. 255. 255. 0. 1. 0. 0. 0.
      0. 0. 2. 0. 0. 255. 255. 254. 254. 255. 255. 255. 255. 255. 255.
      255. 255. 255. 255. 255. 255. 255. 255. 255. 255. 0. 1. 0. 0. 0.
      0. 0. 1. 0. 0. 255. 253. 255. 255. 255. 255. 255. 255. 255. 255.
      255. 255. 255. 255. 255. 255. 255. 255. 255. 255. 0. 1. 0. 0. 0.
      0. 3. 0. 0. 1. 253. 255. 253. 255. 255. 255. 255. 255. 255. 255.
      255. 255. 255. 255. 255. 255. 255. 255. 255. 255. 0. 1. 0. 0. 0.
      0. 0. 2. 1. 0. 0. 255. 255. 255. 255. 255. 255. 255. 255. 255.
      255. 255. 255. 255. 255. 255. 255. 255. 255. 255. 0. 1. 0. 0. 0.
      0. 2. 0. 0. 0. 4. 255. 251. 255. 255. 255. 255. 255. 255. 255.
      255. 255. 255. 255. 255. 255. 255. 255. 255. 255. 0. 1. 0. 0. 0.
      0. 0. 0. 1. 3. 251. 255. 255. 254. 255. 255. 255. 255. 255. 255.
      255. 255. 255. 255. 255. 255. 255. 255. 255. 255. 0. 1. 0. 0. 0.
      0. 0. 1. 0. 0. 255. 253. 255. 255. 255. 255. 255. 255. 255. 255.
      255. 255. 253. 252. 255. 254. 255. 255. 255. 254. 1. 0. 0. 0. 1.
      0. 0. 0. 0. 0. 255. 255. 255. 255. 255. 255. 255. 255. 255. 255.
      253. 251. 254. 255. 251. 255. 255. 255. 255. 255. 0. 0. 1. 1. 0.
      3. 0. 0. 0. 0. 255. 255. 255. 255. 255. 255. 255. 255. 255. 255.
      255. 255. 255. 251. 254. 255. 255. 254. 255. 251. 3. 0. 1. 1. 0.
      0. 0. 0. 0. 0. 255. 255. 255. 255. 255. 255. 255. 255. 255. 255.
      0. 251. 254. 255. 255. 255. 255. 254. 255. 255. 0. 1. 0. 0. 1. 0.
      0. 0. 0. 0. 255. 255. 255. 255. 255. 255. 255. 255. 255. 255. 1.
      255. 255. 254. 255. 253. 255. 255. 255. 0. 1. 0. 1. 0. 0. 4. 0. 0.
      0. 0. 255. 255. 255. 255. 255. 255. 255. 255. 255. 255. 253. 255.
      255. 253. 253. 255. 254. 255. 254. 0. 1. 1. 0. 3. 1. 0. 0. 0. 0.
      0. 255. 255. 255. 255. 255. 255. 255. 255. 255. 255. 255. 255.
      254. 253. 255. 252. 255. 255. 255. 255. 0. 2. 0. 0. 2. 0. 0. 0. 0.
      0. 255. 255. 255. 255. 255. 255. 255. 255. 255. 255. 0. 0. 255.
      255. 254. 255. 253. 255. 254. 255. 0. 0. 0. 4. 0. 0. 0. 0. 0. 0.
      255. 255. 255. 255. 255. 255. 255. 255. 255. 255. 0. 3. 255. 255.
      253. 255. 255. 255. 255. 254. 1. 3. 0. 2. 0. 2. 0. 0. 1. 254. 255.
      255. 251. 255. 255. 253. 255. 255. 255. 252. 0. 0. 255. 252. 255.
      255. 250. 255. 255. 255. 254. 0. 0. 2. 0. 0. 0. 5. 253. 255. 252.
      253. 255. 253. 253. 255. 250. 255. 255. 255. 255. 255. 255. 254.
      253. 254. 255. 255. 250. 255. 255. 253. 1. 3. 0. 1. 254. 254. 255.
      253. 255. 255. 252. 253. 255. 254. 255. 255. 253. 255. 1. 253.
      253. 255. 253. 255. 252. 255. 255. 251. 255. 255. 255. 251. 255.
      254. 253. 255. 254. 255. 255. 254. 255. 255. 253. 253. 253. 255.
      0. 0. 0. 1. 255. 255. 255. 253. 255. 255. 253. 255. 255. 255. 254.
      255. 254. 255. 255. 254. 252. 255. 254. 255. 252. 253. 255. 255.
      254. 255. 2. 0. 0. 0. 253. 255. 252. 255. 255. 254. 255. 255. 255.
      255. 254. 255. 255. 255. 255. 255. 255. 252. 255. 253. 255. 255.
      252. 255. 255. 0. 0. 0. 2. 0. 255. 253. 255. 255. 252. 254. 255.
      253. 255. 254. 255. 252. 255. 255. 255. 254. 255. 255. 255. 255.
      255. 251. 255. 0. 0. 3. 2. 2. 1. 0. 1. 254. 255. 252. 255. 255.
      255. 255. 254. 255. 255. 255. 253. 255. 253. 255. 255. 255. 255.
      253. 254. 255. 255. 1. 0. 0. 1. 0. 1. 0. 0. 255. 254. 255. 255.
      255. 255. 255. 255. 255. 255. 255. 255. 255. 255. 254. 255. 255.
      255. 254. 1. 0. 0. 0. 0. 0. 0. 0. 1. 0. 3. 0. 255. 255. 255. 253.
      255. 255. 255. 255. 255. 255. 255. 255. 254. 253. 255. 251. 254.
      1. 0. 1. 0. 0. 0. 0. 0. 0. 0. 2. 0. 0. 0. 0. 3. 253. 255. 255.
      255. 255. 255. 255. 255. 255. 255. 254. 255. 255. 0. 0. 0. 3. 0.
      0. 0. 0. 0. 0. 3. 0. 0. 0. 3. 1. 0. 255. 255. 255. 255. 255. 255.
      255. 255. 255. 255. 255. 255. 0. 0. 3. 0. 0. 0. 0. 0. 0. 0. 0.</_>
    <_>
      0. 0. 0. 0. 1. 3. 0. 2. 0. 0. 3. 255. 253. 255. 255. 255. 252.
      255. 254. 252. 255. 0. 0. 0. 2. 0. 2. 0. 0. 1. 1. 0. 1. 4. 0. 0.
      3. 0. 1. 2. 250. 255. 255. 251. 255. 252. 255. 253. 255. 255. 252.
      255. 0. 3. 0. 1. 1. 0. 0. 0. 2. 0. 0. 0. 1. 3. 0. 0. 254. 255.
      255. 255. 254. 255. 255. 255. 252. 255. 255. 252. 254. 255. 255.
      0. 1. 1. 0. 0. 1. 0. 0. 0. 0. 4. 0. 0. 2. 255. 253. 255. 252. 253.
      255. 255. 251. 255. 255. 255. 255. 255. 255. 253. 252. 3. 0. 0. 0.
      1. 0. 2. 0. 2. 0. 0. 255. 255. 255. 255. 255. 253. 255. 255. 254.
      255. 255. 253. 255. 248. 255. 254. 255. 255. 255. 252. 255. 1. 1.
      0. 0. 0. 0. 2. 3. 253. 253. 255. 253. 253. 253. 254. 255. 255.
      253. 254. 255. 254. 252. 255. 254. 253. 255. 252. 255. 255. 255.
      0. 0. 1. 0. 1. 1. 0. 255. 253. 255. 253. 253. 255. 255. 255. 253.
      255. 254. 255. 252. 255. 254. 255. 255. 254. 255. 255. 255. 253.
      255. 0. 0. 1. 0. 0. 0. 5. 253. 254. 254. 255. 255. 254. 255. 255.
      255. 255. 252. 0. 255. 255. 255. 253. 254. 255. 255. 255. 254.
      255. 253. 3. 0. 0. 1. 0. 0. 0. 255. 255. 253. 254. 255. 255. 255.
      252. 255. 1. 0. 0. 5. 252. 255. 254. 253. 255. 255. 254. 255. 255.
      254. 255. 0. 0. 0. 1. 0. 1. 253. 255. 255. 255. 253. 253. 255. 4.
      0. 0. 3. 0. 0. 2. 255. 255. 255. 254. 253. 255. 255. 250. 255.
      255. 253. 1. 0. 0. 255. 255. 255. 255. 254. 252. 255. 255. 1. 0.
      1. 0. 4. 0. 0. 2. 0. 255. 252. 254. 255. 254. 254. 255. 254. 255.
      2. 1. 1. 1. 255. 252. 254. 253. 255. 255. 254. 253. 0. 4. 0. 3. 0.
      1. 2. 0. 0. 255. 253. 254. 254. 255. 252. 253. 255. 0. 0. 1. 0. 1.
      255. 255. 255. 255. 253. 255. 251. 255. 1. 0. 0. 0. 1. 3. 0. 0. 1.
      253. 255. 255. 255. 253. 255. 254. 255. 255. 1. 1. 0. 2. 254. 253.
      254. 255. 254. 255. 255. 255. 0. 2. 1. 0. 0. 0. 1. 1. 0. 255. 253.
      255. 253. 255. 251. 254. 253. 255. 255. 0. 1. 1. 255. 253. 255.
      255. 253. 255. 251. 255. 0. 3. 0. 0. 3. 0. 1. 0. 0. 255. 255. 255.
      255. 254. 255. 255. 252. 255. 252. 4. 3. 0. 255. 255. 254. 255.
      254. 253. 255. 255. 1. 0. 3. 0. 0. 2. 0. 1. 0. 255. 255. 253. 255.
      255. 253. 254. 255. 253. 3. 0. 0. 1. 255. 255. 255. 255. 255. 255.
      255. 255. 0. 0. 0. 0. 0. 0. 0. 0. 0. 0. 255. 255. 255. 254. 255.
      254. 255. 255. 0. 2. 2. 0. 255. 255. 255. 255. 255. 255. 255. 255.
      0. 0. 0. 0. 0. 0. 0. 0. 0. 254. 255. 253. 254. 255. 249. 255. 253.
      255. 0. 0. 0. 2. 255. 255. 255. 255. 255. 255. 255. 255. 0. 0. 0.
      0. 0. 0. 0. 0. 2. 252. 255. 251. 255. 252. 255. 255. 255. 250.
      255. 0. 3. 0. 255. 255. 255. 255. 255. 255. 255. 255. 0. 0. 0. 0.
      0. 0. 0. 0. 0. 255. 254. 255. 255. 255. 255. 251. 255. 255. 255.
      0. 0. 0. 255. 255. 255. 255. 255. 255. 255. 255. 0. 0. 0. 0. 0. 0.
      0. 0. 1. 0. 255. 254. 255. 254. 253. 255. 253. 255. 253. 0. 1. 0.
      255. 255. 255. 255. 255. 255. 255. 255. 0. 0. 0. 0. 0. 0. 0. 0. 0.
      0. 253. 255. 255. 255. 255. 254. 255. 253. 255. 3. 0. 0. 255. 255.
      255. 255. 255. 255. 255. 255. 0. 0. 0. 0. 0. 0. 0. 0. 1. 255. 255.
      255. 253. 255. 255. 255. 255. 255. 252. 0. 3. 0. 255. 255. 255.
      255. 255. 255. 255. 255. 0. 0. 0. 0. 0. 0. 0. 0. 0. 0. 254. 255.
      254. 255. 254. 255. 255. 254. 255. 0. 0. 2. 255. 255. 255. 255.
      255. 255. 255. 255. 0. 0. 1. 0. 1. 2. 0. 0. 1. 0. 255. 255. 254.
      252. 255. 255. 254. 255. 254. 0. 0. 0. 255. 255. 255. 255. 255.
      255. 255. 255. 0. 2. 0. 0. 2. 0. 4. 0. 0. 0. 255. 253. 252. 255.
      255. 254. 255. 255. 255. 0. 0. 4. 255. 255. 255. 255. 255. 255.
      255. 255. 1. 2. 1. 0. 1. 0. 0. 0. 0. 255. 252. 255. 255. 253. 255.
      254. 254. 255. 255. 4. 0. 0. 255. 255. 255. 255. 255. 255. 255.
      255. 0. 0. 0. 0. 2. 0. 4. 0. 1. 0. 255. 255. 255. 252. 255. 255.
      253. 254. 253. 0. 1. 0. 255. 255. 255. 255. 255. 255. 255. 255. 0.
      3. 1. 2. 0. 0. 1. 2. 0. 0. 0. 255. 255. 255. 253. 255. 255. 255.
      253. 0. 0. 2. 255. 255. 255. 255. 255. 255. 255. 255. 0. 0. 0. 0.
      1. 3. 0. 0. 2. 0. 0. 250. 255. 254. 255. 253. 255. 249. 255. 0. 0.
      0. 255. 255. 255. 255. 255. 255. 255. 255. 255. 254. 2. 0. 0. 0.
      2. 2. 0. 0. 2. 255. 255. 254. 255. 253. 255. 255. 255. 0. 0. 2.
      255. 255. 255. 255. 255. 255. 255. 255. 255. 255. 0. 0. 2. 1. 0.
      0. 0. 4. 0. 253. 255. 253. 255. 255. 255. 255. 253. 255. 0. 0.
      255. 255. 255. 255. 255. 255. 255. 255. 255. 255. 0. 1. 0. 0. 0.
      0. 0. 1. 254. 255. 254. 255. 254. 255. 255. 255. 255. 255. 0. 0.
      255. 255. 255. 255. 255. 255. 255. 255. 255. 255. 0. 1. 0. 0. 0.
      0. 3. 0. 255. 255. 255. 255. 255. 254. 255. 253. 253. 252. 2. 2.
      255. 255. 255. 255. 255. 255. 255. 255. 255. 255. 0. 1. 0. 0. 0.
      0. 0. 0. 0. 255. 252. 252. 255. 255. 255. 255. 255. 255. 0. 0.
      255. 255. 255. 255. 255. 255. 255. 255. 255. 255. 0. 1. 0. 0. 0.
      0. 0. 2. 0. 0. 255. 255. 255. 251. 253. 255. 255. 251. 3. 0. 255.
      255. 255. 255. 255. 255. 255. 255. 255. 255. 0. 1. 0. 0. 0. 0. 0.
      1. 0. 255. 255. 255. 254. 255. 255. 255. 255. 255. 0. 0. 255. 255.
      255. 255. 255. 255. 255. 255. 255. 255. 0. 1. 0. 0. 0. 0. 0. 0.
      255. 250. 255. 255. 253. 255. 255. 252. 255. 255. 254. 254. 255.
      255. 255. 255. 255. 255. 255. 255. 255. 255. 0. 1. 0. 0. 0. 0. 3.
      0. 0. 255. 255. 253. 255. 254. 255. 254. 255. 254. 255. 255. 255.
      255. 255. 255. 255. 255. 255. 255. 255. 255. 0. 1. 0. 0. 0. 0. 0.
      2. 0. 0. 254. 255. 254. 255. 254. 255. 255. 254. 255. 255. 255.
      255. 255. 254. 255. 254. 254. 255. 255. 255. 0. 1. 0. 0. 0. 0. 0.
      0. 0. 0. 255. 255. 255. 255. 253. 255. 255. 254. 255. 255. 253.
      255. 253. 255. 255. 255. 253. 255. 255. 255. 0. 1. 0. 0. 0. 0. 0.
      2. 0. 0. 255. 255. 253. 255. 255. 255. 255. 255. 251. 255. 255.
      254. 255. 255. 255. 252. 255. 253. 255. 255. 0. 1. 0. 0. 0. 0. 0.
      0. 1. 4. 253. 254. 255. 255. 255. 252. 254. 255. 255. 255. 255.
      253. 255. 253. 254. 255. 253. 255. 255. 255. 0. 1. 0. 0. 0. 0. 1.
      0. 0. 1. 254. 254. 255. 255. 255. 255. 255. 255. 252. 255. 255.
      255. 250. 255. 255. 255. 255. 254. 255. 255. 0. 1. 0. 0. 0. 0. 1.
      0. 1. 0. 254. 255. 255. 250. 253. 255. 255. 252. 255. 255. 0. 2.
      254. 255. 254. 253. 255. 255. 255. 255. 0. 1. 0. 0. 0. 0. 0. 1. 0.
      3. 254. 255. 252. 255. 255. 255. 254. 253. 255. 255. 0. 0. 255.
      255. 254. 255. 255. 255. 255. 255. 0. 1. 0. 0. 0. 0. 0. 0. 0. 255.
      255. 252. 255. 253. 254. 254. 255. 255. 254. 253. 1. 0. 255. 253.
      255. 255. 251. 255. 255. 255. 0. 1. 0. 0. 0. 0. 0. 3. 255. 254.
      255. 254. 255. 254. 255. 255. 254. 255. 0. 0. 0. 0. 255. 255. 254.
      255. 255. 255. 255. 253. 255. 0. 0. 0. 3. 0. 0. 255. 255. 255.
      253. 254. 255. 254. 255. 255. 255. 253. 2. 0. 0. 3. 253. 255. 255.
      251. 255. 255. 255. 255. 253. 255. 255. 253. 254. 255. 255. 251.
      255. 255. 255. 255. 253. 255. 255. 255. 255. 254. 3. 0. 0. 3. 252.
      252. 255. 255. 252. 255. 255. 255. 253. 255. 255. 254. 255. 253.
      254. 255. 254. 255. 254. 255. 254. 255. 255. 253. 255. 1. 0. 0. 0.
      0. 255. 255. 253. 250. 255. 253. 251. 255. 255. 254. 255. 253.
      250. 255. 255. 254. 255. 252. 254. 255. 253. 255. 254. 255. 0. 0.
      4. 6. 0. 0. 0. 254. 255. 255. 253. 254. 254. 255. 255. 252. 255.
      255. 255. 254. 254. 255. 254. 255. 255. 251. 255. 255. 255. 0. 0.
      0. 0. 0. 0. 2. 0. 255. 254. 255. 254. 255. 255. 255. 255. 255.
      250. 255. 253. 255. 253. 255. 254. 253. 254. 255. 252. 255. 0. 1.
      0. 0. 3. 0. 0. 0. 0. 255. 255. 251. 254. 255. 254. 255. 251. 254.
      255. 253. 255. 254. 255. 254. 255. 254. 255. 255. 255. 1. 2. 0. 1.
      1. 0. 0. 0. 0. 1. 0. 255. 255. 255. 254. 255. 255. 255. 254. 255.
      253. 255. 255. 254. 255. 254. 255. 253. 255. 0. 0. 0. 0. 1. 0. 0.
      1. 0. 3. 0. 0. 0. 255. 253. 255. 255. 254. 255. 255. 254. 255.
      255. 254. 254. 254. 255. 252. 0. 2. 0. 1. 0. 0. 0. 0. 0. 0. 3. 0.
      0. 4. 2. 254. 255. 255. 253. 255. 255. 255. 254. 255. 254. 255.
      255. 255. 0. 4. 0. 0. 4. 0. 0. 0. 0. 0. 0. 0. 0. 4. 0. 0. 1. 0. 0.
      0. 253. 255. 254. 254. 255. 255. 252. 255. 253. 0. 1. 0. 2. 1. 0.
      0. 0. 0. 0. 0. 0. 0. 0. 0. 0. 3. 1. 0. 1. 1. 0. 0. 0. 0. 255. 255.
      255. 255. 2. 1. 0. 0. 0. 1. 0. 1. 0. 0. 0. 0. 0. 0.</_>
    <_>
      1. 0. 1. 1. 2. 0. 0. 1. 0. 0. 1. 254. 255. 255. 251. 255. 255.
      251. 255. 255. 254. 1. 0. 0. 0. 0. 0. 2. 0. 0. 1. 0. 2. 0. 0. 4.
      0. 0. 0. 5. 253. 255. 252. 253. 255. 253. 254. 255. 253. 252. 255.
      253. 4. 0. 0. 0. 2. 0. 1. 1. 1. 0. 0. 1. 0. 0. 0. 2. 254. 254.
      255. 253. 255. 255. 252. 253. 254. 252. 255. 255. 253. 255. 254.
      254. 255. 1. 0. 0. 1. 0. 1. 0. 1. 2. 0. 1. 2. 252. 253. 255. 254.
      255. 255. 254. 255. 255. 255. 255. 254. 255. 255. 254. 255. 253.
      255. 2. 0. 2. 0. 0. 0. 0. 0. 0. 0. 1. 250. 255. 255. 254. 252.
      255. 254. 255. 252. 253. 253. 253. 255. 254. 255. 252. 254. 255.
      252. 255. 0. 0. 4. 1. 0. 3. 1. 1. 3. 251. 255. 251. 255. 255. 255.
      252. 255. 253. 255. 255. 255. 255. 253. 255. 252. 255. 255. 255.
      255. 255. 255. 0. 0. 0. 0. 0. 0. 0. 255. 255. 253. 255. 255. 254.
      255. 255. 255. 255. 255. 251. 251. 255. 255. 255. 255. 255. 254.
      255. 255. 255. 254. 255. 2. 0. 0. 0. 3. 255. 254. 255. 255. 255.
      253. 255. 255. 255. 255. 253. 254. 255. 255. 254. 253. 255. 255.
      255. 255. 253. 255. 253. 255. 255. 0. 0. 2. 0. 0. 255. 254. 254.
      255. 254. 253. 255. 255. 255. 255. 255. 252. 255. 253. 255. 255.
      254. 255. 255. 252. 255. 255. 255. 253. 255. 0. 0. 0. 0. 255. 253.
      255. 252. 255. 255. 255. 255. 254. 252. 255. 255. 255. 254. 255.
      255. 255. 255. 254. 253. 255. 250. 253. 254. 255. 2. 2. 0. 1. 0.
      255. 254. 253. 255. 254. 254. 254. 253. 254. 255. 255. 1. 0. 255.
      255. 254. 255. 255. 254. 253. 255. 255. 255. 254. 255. 0. 0. 4. 0.
      1. 254. 255. 253. 255. 253. 255. 255. 255. 255. 0. 2. 0. 0. 3. 0.
      254. 255. 255. 255. 255. 255. 252. 255. 255. 255. 255. 0. 2. 0.
      254. 255. 254. 255. 254. 255. 255. 252. 254. 0. 1. 0. 1. 1. 0. 1.
      0. 255. 255. 253. 255. 255. 255. 252. 254. 255. 255. 0. 0. 255.
      255. 254. 255. 253. 255. 255. 253. 255. 255. 0. 2. 0. 0. 6. 0. 1.
      0. 0. 255. 253. 253. 253. 254. 254. 255. 252. 1. 1. 3. 255. 254.
      255. 255. 255. 254. 253. 255. 255. 253. 0. 0. 4. 0. 0. 2. 0. 0. 1.
      255. 255. 253. 255. 255. 255. 253. 255. 0. 0. 0. 254. 255. 255.
      255. 253. 255. 255. 255. 254. 255. 1. 0. 0. 1. 0. 0. 0. 1. 255.
      254. 253. 255. 255. 254. 253. 255. 255. 0. 0. 1. 255. 255. 255.
      255. 255. 255. 255. 255. 255. 253. 2. 0. 0. 1. 0. 1. 0. 2. 253.
      255. 255. 255. 253. 255. 255. 254. 255. 255. 0. 0. 255. 255. 255.
      255. 255. 255. 255. 255. 255. 2. 0. 0. 0. 1. 0. 0. 0. 0. 1. 254.
      255. 255. 253. 255. 255. 255. 253. 253. 0. 5. 255. 255. 255. 255.
      255. 255. 255. 255. 254. 0. 1. 0. 0. 1. 0. 1. 0. 0. 0. 255. 254.
      255. 255. 254. 254. 255. 253. 255. 0. 0. 255. 255. 255. 255. 255.
      255. 255. 255. 255. 255. 0. 0. 2. 0. 0. 2. 0. 3. 0. 0. 255. 253.
      255. 254. 254. 254. 254. 253. 2. 1. 255. 255. 255. 255. 255. 255.
      255. 255. 254. 253. 2. 0. 0. 0. 1. 0. 0. 1. 0. 1. 255. 252. 255.
      255. 255. 254. 255. 1. 0. 0. 255. 255. 255. 255. 255. 255. 255.
      255. 255. 255. 0. 0. 0. 0. 3. 0. 2. 0. 0. 253. 255. 255. 252. 255.
      255. 252. 255. 254. 2. 0. 255. 255. 255. 255. 255. 255. 255. 255.
      253. 252. 1. 2. 0. 0. 1. 1. 1. 1. 255. 254. 255. 254. 255. 254.
      255. 255. 252. 255. 0. 1. 255. 255. 255. 255. 255. 255. 255. 255.
      255. 254. 1. 0. 0. 0. 0. 0. 0. 0. 0. 255. 254. 255. 255. 255. 254.
      254. 255. 254. 0. 0. 255. 255. 254. 255. 254. 253. 255. 255. 255.
      255. 0. 1. 0. 0. 0. 0. 0. 0. 0. 0. 255. 255. 255. 255. 255. 255.
      255. 254. 1. 0. 255. 253. 255. 255. 253. 255. 251. 255. 255. 255.
      0. 1. 0. 0. 0. 0. 0. 0. 0. 0. 255. 255. 255. 255. 255. 255. 252.
      255. 0. 2. 254. 253. 254. 255. 254. 255. 255. 255. 255. 255. 0. 1.
      0. 0. 0. 0. 0. 0. 0. 0. 255. 255. 255. 255. 254. 255. 255. 254.
      255. 253. 255. 255. 255. 255. 253. 255. 251. 255. 255. 255. 0. 1.
      0. 0. 0. 0. 0. 0. 0. 0. 255. 255. 255. 255. 255. 255. 253. 255.
      255. 255. 255. 252. 254. 253. 255. 255. 254. 253. 255. 255. 0. 1.
      0. 0. 0. 0. 0. 0. 0. 0. 255. 255. 255. 255. 255. 252. 255. 255. 0.
      0. 255. 255. 255. 255. 254. 252. 255. 255. 255. 255. 0. 1. 0. 0.
      0. 0. 0. 0. 0. 0. 255. 255. 255. 255. 255. 255. 255. 255. 0. 1. 0.
      1. 253. 255. 255. 255. 253. 253. 255. 255. 0. 1. 0. 0. 0. 0. 0. 0.
      0. 0. 255. 255. 255. 255. 255. 253. 255. 255. 0. 0. 0. 0. 255.
      255. 253. 254. 255. 255. 255. 255. 0. 1. 0. 0. 0. 0. 0. 0. 0. 0.
      255. 255. 255. 255. 253. 255. 255. 255. 0. 0. 0. 0. 255. 255. 253.
      255. 252. 255. 255. 255. 0. 0. 2. 0. 1. 0. 0. 0. 0. 0. 255. 255.
      255. 255. 255. 255. 255. 255. 255. 255. 1. 0. 254. 255. 255. 254.
      255. 253. 255. 254. 4. 0. 0. 2. 0. 1. 0. 0. 0. 0. 255. 255. 255.
      255. 255. 255. 255. 255. 255. 255. 0. 1. 254. 251. 252. 255. 253.
      255. 254. 255. 0. 0. 3. 1. 0. 0. 0. 0. 0. 0. 255. 255. 255. 255.
      255. 255. 255. 255. 255. 255. 0. 0. 0. 255. 255. 255. 254. 255.
      255. 253. 3. 2. 0. 0. 2. 0. 0. 0. 0. 0. 255. 255. 255. 255. 255.
      255. 255. 255. 255. 255. 0. 2. 254. 255. 254. 254. 255. 255. 253.
      255. 0. 0. 1. 1. 0. 3. 0. 0. 0. 0. 255. 255. 255. 255. 255. 255.
      255. 255. 255. 255. 0. 1. 255. 254. 255. 254. 255. 255. 255. 255.
      0. 0. 0. 1. 0. 0. 0. 0. 0. 0. 255. 255. 255. 255. 255. 255. 255.
      255. 255. 255. 4. 0. 255. 255. 255. 255. 253. 253. 255. 249. 255.
      2. 3. 0. 1. 0. 0. 0. 0. 0. 255. 255. 255. 255. 255. 255. 255. 255.
      255. 255. 0. 1. 255. 254. 255. 255. 253. 255. 255. 255. 255. 0. 0.
      2. 0. 0. 0. 0. 0. 0. 255. 255. 255. 255. 255. 255. 255. 255. 255.
      255. 1. 0. 255. 255. 254. 253. 255. 251. 255. 255. 255. 0. 0. 0.
      1. 0. 0. 0. 0. 0. 255. 255. 255. 255. 255. 254. 255. 253. 255.
      255. 0. 3. 252. 255. 255. 255. 252. 255. 255. 252. 1. 2. 3. 0. 0.
      0. 0. 0. 0. 0. 255. 255. 255. 255. 255. 255. 255. 255. 254. 253.
      3. 0. 255. 255. 255. 255. 254. 255. 254. 255. 0. 0. 0. 0. 0. 2. 0.
      0. 0. 0. 255. 255. 255. 255. 255. 253. 254. 251. 255. 255. 0. 1.
      255. 254. 255. 255. 254. 255. 255. 252. 2. 3. 1. 0. 3. 0. 0. 0. 0.
      0. 255. 255. 255. 255. 255. 255. 255. 255. 252. 255. 2. 0. 255.
      254. 254. 254. 255. 254. 255. 255. 0. 0. 1. 0. 3. 0. 0. 0. 0. 0.
      255. 255. 255. 255. 255. 254. 255. 253. 255. 254. 1. 0. 0. 255.
      255. 255. 255. 255. 251. 255. 0. 0. 1. 1. 0. 1. 0. 0. 0. 0. 255.
      255. 255. 255. 254. 255. 255. 253. 2. 0. 0. 0. 3. 253. 253. 254.
      254. 255. 255. 255. 0. 3. 0. 0. 1. 0. 0. 0. 0. 0. 255. 255. 255.
      255. 254. 255. 255. 255. 0. 0. 1. 1. 0. 254. 255. 255. 255. 254.
      255. 254. 0. 0. 1. 0. 1. 0. 0. 0. 0. 0. 255. 255. 255. 255. 255.
      254. 255. 255. 0. 0. 0. 1. 0. 255. 255. 255. 254. 255. 255. 255.
      0. 1. 0. 0. 1. 0. 1. 0. 0. 2. 253. 254. 255. 254. 254. 255. 253.
      255. 0. 0. 1. 0. 1. 0. 255. 255. 255. 252. 253. 253. 255. 254. 1.
      0. 0. 2. 0. 3. 0. 252. 255. 255. 253. 255. 255. 255. 255. 255. 1.
      0. 0. 2. 3. 1. 0. 252. 255. 252. 255. 255. 254. 255. 253. 4. 0. 0.
      0. 1. 1. 255. 255. 253. 255. 254. 254. 252. 255. 255. 0. 1. 1. 0.
      0. 0. 0. 255. 250. 255. 254. 253. 255. 255. 254. 0. 0. 255. 255.
      254. 254. 254. 255. 253. 254. 255. 255. 253. 254. 255. 2. 0. 0. 2.
      0. 0. 2. 254. 255. 254. 255. 255. 252. 255. 255. 252. 255. 253.
      255. 255. 254. 255. 255. 255. 255. 251. 251. 255. 250. 255. 0. 1.
      0. 1. 1. 0. 0. 255. 254. 255. 255. 255. 254. 255. 255. 255. 254.
      255. 254. 254. 255. 255. 251. 255. 252. 255. 254. 255. 255. 0. 0.
      2. 1. 0. 1. 0. 0. 255. 255. 255. 253. 255. 255. 250. 253. 255.
      252. 255. 255. 252. 255. 252. 255. 255. 255. 255. 255. 0. 1. 2. 2.
      0. 0. 4. 0. 2. 1. 254. 255. 255. 255. 249. 255. 255. 255. 253.
      255. 254. 255. 255. 253. 254. 255. 255. 255. 254. 255. 1. 0. 1. 0.
      0. 0. 3. 0. 0. 0. 255. 253. 255. 255. 255. 253. 255. 254. 255.
      255. 255. 255. 255. 253. 253. 255. 254. 255. 0. 0. 0. 0. 0. 0. 0.
      3. 0. 0. 4. 2. 254. 255. 255. 253. 255. 255. 255. 255. 255. 252.
      254. 255. 255. 255. 255. 253. 255. 0. 1. 0. 0. 0. 0. 0. 0. 0. 4.
      0. 0. 1. 0. 0. 0. 255. 251. 255. 252. 254. 255. 255. 255. 255. 0.
      0. 0. 3. 0. 1. 0. 0. 0. 0. 0. 0. 0. 0. 0. 0. 3. 1. 0. 1. 1. 0.
      255. 1. 255. 253. 253. 255. 255. 0. 0. 0. 1. 0. 0. 1. 0. 0. 0. 0.
      0. 0. 0.</_>
    <_>
      0. 3. 0. 2. 0. 1. 1. 0. 0. 255. 255. 253. 255. 255. 255. 253. 3.
      0. 2. 0. 1. 1. 0. 1. 0. 0. 0. 1. 0. 0. 0. 0. 4. 0. 0. 0. 0. 3. 0.
      255. 250. 255. 255. 255. 251. 255. 253. 255. 255. 254. 253. 255.
      252. 0. 2. 0. 1. 0. 1. 0. 2. 0. 1. 0. 1. 0. 3. 0. 255. 255. 255.
      255. 251. 255. 255. 251. 253. 255. 254. 255. 255. 255. 255. 255.
      254. 0. 3. 0. 0. 4. 0. 1. 0. 1. 0. 0. 3. 255. 255. 250. 255. 255.
      255. 254. 255. 255. 255. 251. 255. 255. 253. 252. 255. 254. 255.
      1. 1. 0. 0. 0. 0. 3. 0. 0. 255. 255. 253. 255. 254. 255. 253. 253.
      255. 255. 250. 255. 253. 255. 254. 255. 255. 255. 254. 254. 255.
      0. 1. 0. 1. 0. 0. 0. 0. 255. 255. 254. 255. 253. 255. 254. 255.
      253. 255. 253. 255. 255. 255. 255. 254. 250. 255. 255. 253. 255.
      255. 255. 0. 1. 0. 0. 3. 0. 3. 254. 254. 255. 255. 255. 255. 255.
      254. 254. 255. 255. 255. 253. 255. 255. 255. 255. 254. 252. 255.
      255. 255. 255. 2. 0. 0. 3. 1. 0. 1. 255. 254. 255. 255. 255. 254.
      255. 254. 255. 254. 253. 255. 255. 255. 255. 254. 255. 255. 255.
      253. 255. 255. 255. 255. 1. 0. 0. 0. 0. 0. 255. 255. 254. 255.
      255. 253. 255. 255. 254. 255. 255. 253. 255. 253. 255. 255. 254.
      253. 255. 254. 255. 255. 254. 255. 255. 0. 0. 0. 0. 0. 255. 255.
      254. 255. 255. 255. 252. 255. 255. 253. 255. 254. 255. 255. 255.
      253. 253. 255. 255. 251. 255. 254. 255. 255. 255. 0. 0. 0. 0. 0.
      255. 255. 254. 255. 255. 251. 255. 255. 252. 255. 252. 1. 0. 0. 0.
      254. 255. 252. 251. 255. 254. 254. 255. 255. 253. 2. 0. 0. 0. 0.
      255. 255. 254. 255. 255. 255. 252. 255. 255. 254. 3. 1. 0. 1. 0.
      2. 255. 254. 255. 252. 254. 255. 254. 255. 253. 255. 254. 0. 0. 0.
      255. 255. 254. 255. 255. 255. 253. 255. 253. 255. 0. 0. 0. 1. 0.
      0. 0. 254. 254. 255. 255. 255. 255. 255. 255. 252. 255. 0. 0. 0.
      255. 255. 254. 255. 255. 253. 255. 254. 255. 255. 3. 1. 1. 0. 1.
      3. 0. 255. 255. 255. 252. 255. 253. 254. 251. 255. 255. 0. 0. 0.
      255. 255. 254. 255. 255. 254. 255. 255. 255. 252. 0. 0. 2. 2. 0.
      0. 1. 0. 255. 254. 255. 255. 255. 255. 255. 254. 253. 0. 0. 0.
      255. 255. 254. 255. 255. 255. 252. 254. 255. 255. 0. 2. 0. 0. 0.
      0. 0. 2. 0. 255. 253. 255. 254. 255. 253. 255. 255. 0. 0. 0. 255.
      255. 254. 255. 255. 255. 253. 255. 254. 1. 0. 2. 0. 0. 0. 0. 0. 1.
      0. 255. 255. 255. 255. 255. 255. 255. 255. 0. 0. 0. 255. 255. 254.
      255. 255. 255. 255. 253. 0. 2. 0. 0. 0. 0. 0. 0. 0. 1. 0. 255.
      255. 255. 255. 255. 255. 255. 255. 0. 0. 0. 255. 255. 254. 255.
      255. 255. 255. 254. 0. 0. 0. 4. 0. 0. 0. 0. 0. 1. 0. 255. 255.
      255. 255. 255. 255. 255. 255. 0. 0. 0. 255. 255. 254. 255. 255.
      255. 254. 3. 0. 0. 1. 2. 0. 0. 0. 0. 0. 1. 0. 255. 255. 255. 255.
      255. 255. 255. 255. 0. 0. 0. 255. 255. 254. 255. 255. 255. 255. 0.
      3. 0. 0. 2. 3. 0. 0. 0. 0. 1. 0. 255. 255. 255. 255. 255. 255.
      255. 255. 0. 0. 0. 255. 255. 254. 255. 255. 255. 255. 0. 0. 5. 1.
      0. 1. 0. 0. 0. 0. 1. 0. 255. 255. 255. 255. 255. 255. 255. 255. 0.
      0. 0. 255. 255. 254. 255. 255. 254. 254. 2. 1. 0. 1. 0. 0. 0. 0.
      0. 0. 1. 0. 255. 255. 255. 255. 255. 255. 255. 255. 0. 0. 0. 255.
      255. 254. 255. 255. 255. 254. 1. 0. 1. 0. 2. 0. 0. 0. 0. 0. 1. 0.
      255. 255. 255. 255. 255. 255. 255. 255. 0. 0. 0. 255. 255. 253.
      255. 255. 255. 255. 255. 0. 0. 0. 1. 0. 1. 0. 1. 0. 1. 0. 255.
      254. 255. 255. 255. 255. 255. 255. 0. 6. 0. 253. 252. 255. 254.
      255. 255. 252. 1. 2. 3. 0. 0. 0. 1. 1. 0. 0. 1. 0. 255. 255. 255.
      255. 255. 255. 255. 255. 0. 0. 255. 255. 255. 254. 255. 255. 254.
      255. 0. 0. 0. 0. 0. 2. 0. 1. 0. 0. 1. 0. 254. 255. 255. 255. 255.
      255. 255. 255. 2. 0. 255. 255. 254. 254. 255. 252. 255. 252. 2. 3.
      1. 0. 3. 0. 0. 0. 2. 0. 2. 0. 255. 252. 255. 255. 255. 255. 255.
      255. 0. 2. 252. 253. 255. 255. 253. 255. 255. 255. 0. 0. 1. 0. 3.
      0. 0. 2. 0. 1. 0. 254. 253. 255. 255. 255. 255. 255. 255. 255. 1.
      0. 255. 255. 252. 254. 255. 255. 251. 255. 0. 0. 1. 1. 0. 1. 1. 0.
      1. 1. 0. 255. 255. 254. 255. 255. 255. 255. 255. 255. 0. 1. 251.
      255. 255. 253. 255. 254. 255. 255. 0. 3. 0. 0. 1. 0. 0. 0. 1. 0.
      0. 255. 255. 253. 255. 255. 255. 255. 255. 255. 0. 0. 255. 255.
      253. 255. 254. 255. 255. 254. 0. 0. 1. 0. 1. 0. 0. 2. 0. 1. 0.
      254. 255. 255. 255. 255. 255. 255. 255. 255. 0. 2. 255. 255. 255.
      254. 254. 255. 255. 255. 0. 1. 0. 0. 0. 0. 1. 0. 0. 1. 0. 1. 255.
      255. 255. 253. 255. 255. 251. 255. 3. 0. 255. 254. 254. 255. 253.
      255. 255. 255. 0. 1. 0. 0. 0. 0. 0. 0. 1. 0. 0. 0. 254. 255. 253.
      255. 252. 254. 255. 254. 1. 3. 252. 255. 255. 255. 255. 254. 255.
      255. 0. 1. 0. 0. 0. 0. 1. 0. 0. 1. 255. 255. 254. 254. 255. 255.
      255. 255. 251. 253. 0. 0. 255. 251. 255. 254. 253. 255. 255. 255.
      0. 1. 0. 0. 0. 0. 0. 3. 0. 0. 254. 253. 254. 255. 255. 253. 254.
      253. 255. 255. 3. 0. 252. 255. 254. 255. 251. 255. 255. 255. 0. 1.
      0. 0. 0. 0. 2. 0. 0. 2. 253. 255. 255. 254. 255. 255. 255. 255.
      254. 0. 0. 2. 255. 255. 254. 255. 255. 254. 255. 255. 0. 1. 0. 0.
      0. 0. 0. 0. 3. 0. 255. 253. 255. 255. 255. 253. 255. 254. 0. 2. 0.
      255. 254. 252. 255. 253. 255. 253. 255. 255. 0. 1. 0. 0. 0. 0. 0.
      4. 0. 3. 253. 255. 255. 255. 255. 255. 255. 255. 254. 1. 255. 254.
      255. 255. 254. 255. 254. 255. 255. 255. 0. 1. 0. 0. 0. 0. 0. 0. 2.
      0. 255. 255. 252. 255. 255. 253. 255. 255. 254. 255. 254. 255.
      255. 254. 255. 252. 255. 255. 255. 255. 0. 1. 0. 0. 2. 0. 0. 3. 0.
      0. 254. 254. 255. 254. 254. 255. 253. 255. 255. 255. 255. 250.
      255. 255. 252. 255. 254. 255. 255. 255. 3. 0. 2. 0. 0. 1. 1. 0. 0.
      2. 255. 255. 255. 254. 255. 253. 255. 253. 1. 0. 255. 255. 255.
      254. 255. 254. 255. 254. 254. 253. 0. 1. 0. 0. 1. 2. 1. 0. 0. 0.
      255. 255. 255. 253. 255. 255. 255. 255. 0. 0. 253. 253. 252. 255.
      253. 255. 255. 254. 255. 255. 0. 0. 0. 4. 0. 0. 0. 0. 0. 255. 252.
      255. 250. 255. 252. 255. 253. 251. 1. 5. 255. 255. 254. 255. 255.
      253. 255. 254. 254. 255. 2. 1. 1. 0. 0. 1. 0. 3. 1. 255. 255. 255.
      255. 251. 255. 253. 255. 255. 0. 1. 253. 254. 255. 255. 254. 255.
      254. 255. 255. 0. 0. 0. 0. 1. 0. 0. 2. 0. 0. 255. 254. 255. 255.
      255. 254. 253. 255. 254. 255. 0. 255. 255. 255. 248. 255. 255.
      253. 255. 0. 2. 0. 3. 2. 0. 0. 3. 0. 0. 255. 253. 255. 255. 253.
      254. 255. 255. 252. 255. 255. 253. 0. 0. 255. 255. 254. 255. 255.
      254. 0. 0. 3. 0. 0. 2. 0. 0. 0. 255. 254. 255. 255. 255. 255. 255.
      253. 255. 255. 254. 0. 4. 0. 2. 252. 255. 252. 255. 255. 253. 255.
      0. 0. 1. 0. 0. 1. 0. 0. 255. 255. 254. 254. 255. 255. 254. 254.
      255. 253. 255. 0. 0. 1. 0. 4. 255. 254. 253. 253. 255. 255. 254.
      0. 2. 2. 0. 3. 0. 0. 255. 254. 253. 255. 253. 255. 254. 255. 255.
      255. 255. 0. 1. 0. 1. 0. 253. 255. 255. 252. 255. 253. 255. 2. 0.
      0. 3. 0. 1. 0. 254. 255. 255. 251. 255. 250. 255. 254. 253. 254.
      255. 0. 1. 0. 1. 0. 0. 254. 252. 255. 255. 255. 254. 255. 253.
      254. 255. 255. 0. 3. 251. 255. 254. 253. 255. 255. 252. 255. 255.
      255. 255. 4. 0. 2. 0. 1. 1. 0. 255. 255. 255. 255. 255. 253. 255.
      255. 255. 253. 255. 0. 255. 255. 255. 255. 253. 255. 255. 255.
      252. 255. 254. 0. 1. 0. 4. 0. 0. 2. 252. 255. 252. 255. 253. 255.
      253. 253. 253. 255. 254. 255. 253. 254. 253. 255. 254. 253. 255.
      255. 255. 255. 0. 0. 2. 2. 0. 0. 0. 1. 0. 1. 255. 253. 255. 255.
      255. 255. 254. 255. 254. 255. 255. 255. 255. 255. 255. 253. 254.
      254. 255. 251. 0. 3. 0. 0. 2. 0. 0. 0. 0. 1. 0. 255. 255. 255.
      252. 255. 255. 255. 255. 255. 254. 254. 254. 255. 254. 255. 255.
      255. 254. 1. 3. 0. 0. 0. 0. 0. 0. 0. 0. 0. 0. 0. 255. 255. 254.
      255. 254. 255. 252. 253. 255. 253. 255. 255. 255. 253. 255. 255.
      1. 0. 0. 2. 0. 0. 0. 0. 0. 0. 0. 0. 0. 3. 1. 254. 253. 254. 254.
